2309 100
və -0.6611288 0.09618975 0.23488668 0.0015659657 0.058054566 0.36332145 0.13315059 0.26330778 -0.51614374 0.16974857 0.08154588 0.3123608 0.51743865 -0.8165213 0.39968297 -0.35099715 0.18484588 0.11634743 0.18718481 -0.22437687 0.18652377 0.4193216 0.38515434 -0.9414478 -0.38108462 -0.41518378 -0.74420375 0.023001637 0.43464336 -0.5251432 0.898593 -0.3415327 0.75310653 -0.18031064 0.2976202 0.13888164 -1.0422491 0.0014629422 -0.039122373 0.48742643 -0.65815514 -0.17378597 -0.6603438 0.19696215 -0.3626943 -0.050506614 0.17126165 0.18213236 -0.55502385 0.74828154 0.16126432 -0.4525271 0.7468745 -0.80610627 -0.09260651 0.017012328 -0.07711638 -0.6848773 -0.1841441 -0.15135266 0.057588134 -0.09477047 0.4906282 0.31724533 0.32000464 0.29040137 0.22689386 0.27031282 -0.26023695 -0.33924848 -0.2827937 -0.37395135 0.49812713 -0.047337074 0.59786826 0.29920286 0.7297292 0.20642231 0.07391221 0.91595703 -0.2616676 -0.0788361 -0.36577106 0.21963517 0.1993147 -0.099910386 -0.11677549 0.34843096 0.512689 -0.2926368 1.1446697 -0.2108556 0.83971757 -0.21695797 0.13367078 0.7342884 -0.3385828 -0.70869607 0.6091194 -0.025098326
ilə -0.6241921 -0.06544202 0.18756561 0.061226867 0.019339498 0.38230604 -0.012670155 0.2095745 -0.5847758 0.08233304 0.077283874 0.48799962 0.62793976 -0.866389 0.40038395 -0.26760417 0.2548465 0.16503546 0.1536937 -0.16629161 0.26873255 0.43501982 0.41904145 -1.0277804 -0.47598457 -0.47343832 -0.68913686 0.013003384 0.42462635 -0.5884489 0.9752704 -0.2608422 0.88043594 -0.27712214 0.29884222 0.0906216 -1.0342777 0.031122554 -0.1147237 0.6016431 -0.64694923 -0.100550964 -0.56881636 0.1697753 -0.39750677 0.043925975 0.30403054 0.055894207 -0.6650718 0.7433524 0.193999 -0.49351496 0.77484405 -0.88293344 0.046165578 -0.039627727 -0.13382304 -0.7154278 -0.28390402 -0.15040912 0.08126698 -0.09162022 0.5405874 0.40953818 0.358173 0.29648158 0.26122737 0.25509265 -0.38501102 -0.35485107 -0.2739116 -0.4602779 0.5257398 0.022761736 0.7357628 0.2652908 0.7226534 0.23902479 0.041958813 1.0428778 -0.3614308 -0.01957035 -0.419324 0.2111783 0.13689733 -0.17592816 -0.082621686 0.24618527 0.58349836 -0.37597638 1.2169046 -0.25339216 0.9124066 -0.34805885 0.13606247 0.9505247 -0.26326376 -0.8108948 0.6153519 -0.030516807
bir -0.59677833 0.033118274 0.20409374 0.027053017 0.044804383 0.33611816 0.0760926 0.2283066 -0.50097626 0.12698749 0.076067045 0.35466343 0.5203163 -0.7800466 0.3712973 -0.29516867 0.19867605 0.13140592 0.1573256 -0.1851009 0.20462415 0.3907231 0.36833256 -0.90445024 -0.39172378 -0.405382 -0.6695926 0.014009627 0.40326244 -0.503072 0.8644875 -0.28345153 0.7487458 -0.20251808 0.27584875 0.11541879 -0.96655786 0.0129968915 -0.060694866 0.49229226 -0.61338115 -0.13339248 -0.57744706 0.17303897 -0.35031933 -0.012079597 0.20175073 0.119489655 -0.55300826 0.68906957 0.1604739 -0.4307639 0.7034428 -0.77780646 -0.038523935 -0.0013747001 -0.08817815 -0.64367044 -0.20795996 -0.14163399 0.06708215 -0.08418016 0.4726685 0.3322485 0.31567568 0.27211586 0.21855271 0.24422626 -0.28859243 -0.31564316 -0.25606287 -0.37656614 0.48027307 -0.01997392 0.5974326 0.27146858 0.6720587 0.20739742 0.0547582 0.8917929 -0.27986562 -0.05258994 -0.36236623 0.20074102 0.1532977 -0.12226824 -0.09348854 0.28685614 0.5011548 -0.30570072 1.0830995 -0.2135714 0.80336225 -0.2503454 0.11689303 0.758278 -0.29037088 -0.70332587 0.57742375 -0.026063148
bu -0.6039585 0.078454055 0.2188394 0.0080042435 0.05401185 0.33061317 0.11607434 0.24629366 -0.4803705 0.15041614 0.081970096 0.2903789 0.48237044 -0.7573356 0.36050183 -0.3179235 0.17368983 0.11209987 0.16580364 -0.19873206 0.17515698 0.37763447 0.35148945 -0.8665906 -0.35294738 -0.38333097 -0.68409306 0.021897804 0.4017489 -0.47878525 0.8295697 -0.30692676 0.69372255 -0.17309599 0.27035448 0.12502532 -0.95363325 0.005996284 -0.036820035 0.44899914 -0.60895693 -0.15351446 -0.59793574 0.1826658 -0.33467528 -0.040785514 0.15931118 0.15922786 -0.5147677 0.6841446 0.15078147 -0.4164266 0.68391 -0.74339056 -0.07955175 0.012936135 -0.0718963 -0.6278189 -0.17006397 -0.13937625 0.06277571 -0.0879936 0.45016238 0.30108294 0.30227542 0.2646442 0.20892167 0.24751315 -0.24649848 -0.3096437 -0.25667718 -0.34450468 0.45552355 -0.042285763 0.55040634 0.27759218 0.66740036 0.19756036 0.069838725 0.84064704 -0.24964099 -0.070900634 -0.34655973 0.20162873 0.17091087 -0.09582913 -0.10760432 0.31206316 0.46939093 -0.2714626 1.0545348 -0.19920337 0.7707404 -0.20950516 0.11732112 0.68455505 -0.30712366 -0.658477 0.56975603 -0.025328392
" -0.4406768 0.12590471 0.17059952 -0.024733314 0.058438748 0.23654684 0.15020287 0.1990303 -0.30761996 0.14043483 0.043374237 0.12357219 0.2784256 -0.5066075 0.25009283 -0.2625516 0.09446449 0.058476217 0.13885576 -0.15348265 0.08494153 0.26671445 0.23690906 -0.5753715 -0.20910805 -0.24328615 -0.49983948 0.011304057 0.28961065 -0.31089365 0.5509955 -0.25895357 0.42666006 -0.07353876 0.1967421 0.10888998 -0.66989136 -0.011482082 0.012556955 0.25695145 -0.43300074 -0.14751339 -0.4629587 0.13243182 -0.20776019 -0.08075852 0.05419471 0.1668317 -0.31645155 0.4791694 0.0927127 -0.277607 0.46737123 -0.47612756 -0.10833806 0.034511168 -0.026918497 -0.4268884 -0.07817547 -0.09043659 0.037465263 -0.052592445 0.29521483 0.1689748 0.18789515 0.17868254 0.13698874 0.1765079 -0.11831743 -0.20527701 -0.18483776 -0.1999887 0.30348712 -0.055838376 0.3316316 0.20708734 0.4667068 0.12360241 0.06013525 0.52556187 -0.13101605 -0.072465 -0.21429145 0.15569822 0.15518844 -0.03805872 -0.087223776 0.25461727 0.29240698 -0.1569173 0.7027992 -0.114463404 0.50337154 -0.097680226 0.07558055 0.3891356 -0.24229112 -0.40658396 0.40042633 -0.022856455
də -0.8263778 0.013405708 0.2723072 0.040544182 0.050743986 0.48071656 0.084084146 0.29833174 -0.710452 0.16005489 0.095704615 0.50626045 0.7213848 -1.0747163 0.51513064 -0.4013702 0.2851615 0.17414819 0.22343685 -0.245612 0.29066232 0.5451527 0.52084666 -1.2638044 -0.54512703 -0.5692018 -0.91832316 0.026272815 0.5464798 -0.70984507 1.2032912 -0.3833939 1.035899 -0.28981432 0.38094822 0.15544496 -1.3263627 0.022511227 -0.095884524 0.6912328 -0.8359919 -0.18206911 -0.793178 0.23264089 -0.48342648 -0.004640754 0.3079701 0.15559915 -0.77439034 0.9595631 0.23014018 -0.60848963 0.97471005 -1.072988 -0.036322277 -0.016927777 -0.12692872 -0.8900779 -0.29772958 -0.19335853 0.08492017 -0.11819593 0.6601661 0.46576262 0.4375961 0.37302297 0.30562615 0.34160095 -0.40749812 -0.44344416 -0.35551125 -0.52681345 0.6599575 -0.024010548 0.8534828 0.36865237 0.9312767 0.2800536 0.08281248 1.2510519 -0.40389624 -0.058133334 -0.50505215 0.2768816 0.21505281 -0.17288335 -0.13134047 0.38267416 0.6920198 -0.42997727 1.5057882 -0.2929657 1.1225488 -0.36091608 0.16887318 1.0756872 -0.39494637 -0.97080046 0.7863702 -0.04318685
üçün -0.5586573 0.07024911 0.19914152 0.007262215 0.049140688 0.31340364 0.11264624 0.22536932 -0.4424368 0.13669157 0.06784124 0.27476147 0.44466597 -0.696965 0.33815193 -0.29564422 0.16229197 0.099811904 0.15322815 -0.18257412 0.16480462 0.3520642 0.319858 -0.80327386 -0.33019125 -0.35191613 -0.6193799 0.015532572 0.3726601 -0.45045155 0.77278584 -0.28260162 0.6492596 -0.1579722 0.25342065 0.11239183 -0.88043493 0.0070000147 -0.033671293 0.4109745 -0.5583753 -0.14647232 -0.55170816 0.16834685 -0.31022787 -0.03499568 0.1525908 0.14782916 -0.48081982 0.6359284 0.13911606 -0.3903229 0.6365656 -0.6873869 -0.0693159 0.01535766 -0.07076626 -0.582134 -0.16387966 -0.13017751 0.058284674 -0.081203945 0.41599318 0.27934632 0.26806027 0.2461107 0.18993184 0.22632751 -0.228168 -0.2852479 -0.23472516 -0.32054967 0.41861138 -0.031293776 0.5105389 0.25479233 0.6063017 0.17888719 0.067218006 0.7739225 -0.23040675 -0.064495645 -0.3163142 0.18579483 0.15832879 -0.08682598 -0.09372222 0.28395197 0.44240662 -0.2540529 0.9731519 -0.185989 0.7115792 -0.19242324 0.113560304 0.6323852 -0.2822129 -0.61351055 0.5245794 -0.024016688
memarlıq -0.49663475 -0.024818419 0.16072325 0.04163247 0.017071707 0.29930076 0.025898028 0.17417999 -0.45749995 0.078393295 0.05604343 0.35469806 0.46954286 -0.66585785 0.31639272 -0.23281221 0.19306518 0.11501226 0.12928109 -0.14213039 0.19896162 0.3409529 0.32210004 -0.7981602 -0.36681217 -0.3650698 -0.54444146 0.02041306 0.33441266 -0.44578856 0.7599789 -0.22283386 0.6749094 -0.20220234 0.23886435 0.08535326 -0.8174989 0.028873764 -0.07371229 0.44983685 -0.50970465 -0.09475456 -0.46032143 0.13828823 -0.3095145 0.027142096 0.20913708 0.06310167 -0.5161757 0.5943468 0.15704745 -0.38683692 0.6103461 -0.6873629 0.003636615 -0.012890364 -0.092747785 -0.5609389 -0.21718569 -0.119528025 0.056222763 -0.071868874 0.41239518 0.30588734 0.2730077 0.23146644 0.19704399 0.2026609 -0.2809813 -0.27884653 -0.21142262 -0.3437124 0.40726647 0.008422334 0.5529063 0.21639171 0.55658126 0.18000618 0.042563748 0.7957866 -0.26880422 -0.021000113 -0.32431248 0.16814375 0.12140138 -0.11858222 -0.07855488 0.20713273 0.4505091 -0.27788857 0.9468637 -0.19919552 0.7083688 -0.25272998 0.1104414 0.7144838 -0.21992758 -0.62383306 0.49083078 -0.02438437
olan -0.5949979 -0.030370684 0.19015048 0.05056499 0.021014314 0.35775167 0.023615621 0.20905358 -0.53911316 0.08413073 0.071540385 0.424941 0.57066804 -0.8021194 0.37690127 -0.27411774 0.22576405 0.14787607 0.15170838 -0.16686973 0.23359662 0.40334412 0.38104182 -0.9510695 -0.4259426 -0.43561637 -0.6520036 0.017224364 0.40596703 -0.5490277 0.9035954 -0.26213625 0.80650175 -0.25153702 0.28145266 0.09895276 -0.9725633 0.034877032 -0.09177159 0.53659093 -0.61338747 -0.11138617 -0.55135626 0.16721223 -0.36187166 0.02999923 0.25427824 0.07754203 -0.60381085 0.70075524 0.1811191 -0.4580008 0.72349674 -0.81217766 0.009244735 -0.023323555 -0.11565642 -0.666631 -0.258649 -0.14551307 0.06987953 -0.085115075 0.50224596 0.3683389 0.33008602 0.27250224 0.23110832 0.24384826 -0.33733863 -0.32802957 -0.25355336 -0.4123853 0.48527274 0.009396646 0.6553824 0.2552039 0.6703581 0.21768482 0.049535368 0.95000964 -0.3246494 -0.034036085 -0.38248342 0.19879247 0.1336895 -0.149052 -0.08400477 0.24653135 0.54149306 -0.3391667 1.1303306 -0.23420085 0.8449021 -0.30135205 0.1252221 0.8479734 -0.261589 -0.7452199 0.58632654 -0.02856808
idi. -0.6885554 0.15262799 0.2571877 -0.015904827 0.08434855 0.35421547 0.18753384 0.30508503 -0.5037609 0.19371293 0.07896718 0.26159558 0.49866435 -0.81934416 0.41345608 -0.38525432 0.16691352 0.107685536 0.20077156 -0.24269935 0.16369249 0.4230615 0.39202392 -0.92936355 -0.3619652 -0.39576083 -0.77642035 0.025986511 0.46259755 -0.5156437 0.897481 -0.36886126 0.71995765 -0.16172767 0.2972708 0.15641737 -1.0600446 -0.013428047 -0.009432615 0.4691817 -0.6758988 -0.20077202 -0.703066 0.20394063 -0.3573095 -0.081442885 0.124657445 0.2229337 -0.5327466 0.7523538 0.15716307 -0.4536237 0.7502664 -0.7910404 -0.13658911 0.035735615 -0.06025619 -0.6826525 -0.15423298 -0.15437688 0.05442441 -0.082787976 0.48718056 0.30945936 0.31877735 0.28512663 0.21827494 0.2818007 -0.23039229 -0.3325664 -0.28853998 -0.35748264 0.5179173 -0.07054954 0.56704104 0.3174345 0.7412421 0.20041531 0.08596302 0.8893684 -0.24148788 -0.10331548 -0.35884693 0.23634125 0.22014762 -0.08809773 -0.13304172 0.38892084 0.50071776 -0.2754144 1.1469802 -0.20209089 0.8220107 -0.19621831 0.119380884 0.6938375 -0.3678879 -0.6983256 0.63145727 -0.036625333
da -0.8232802 0.08790436 0.29522774 0.021797419 0.07117374 0.45771807 0.14249362 0.3235462 -0.67341286 0.20126821 0.106027044 0.42394933 0.6758278 -1.0400122 0.4992826 -0.43211335 0.24130772 0.15451528 0.22732745 -0.26633582 0.2518217 0.52518505 0.48764834 -1.194281 -0.49757484 -0.53007305 -0.9213857 0.03775143 0.5501145 -0.66846085 1.1501526 -0.41741294 0.97346205 -0.24546237 0.37199768 0.17300498 -1.3140371 0.0061590723 -0.063082024 0.6304819 -0.84009826 -0.21285747 -0.8122958 0.25116974 -0.46156216 -0.04765448 0.23804656 0.20583805 -0.7185259 0.94905084 0.21219812 -0.5792871 0.95037454 -1.0246904 -0.0979344 0.018948913 -0.1070648 -0.8645581 -0.2511116 -0.18913531 0.08867128 -0.116569735 0.62362194 0.41638142 0.4108083 0.36237898 0.28859994 0.3369872 -0.35057858 -0.43099385 -0.35418728 -0.48320785 0.63094586 -0.04472765 0.77614766 0.37843654 0.9167604 0.27311742 0.09400405 1.1708891 -0.34862867 -0.08673364 -0.4748346 0.27600822 0.23071262 -0.1357815 -0.14468193 0.41369835 0.65796465 -0.38624138 1.4599642 -0.27399263 1.0749559 -0.29892686 0.16783723 0.9719478 -0.4146514 -0.918651 0.78077275 -0.039618585
ki, -0.66563505 0.15709275 0.25846258 -0.022780955 0.07874547 0.35185835 0.20208414 0.2929148 -0.4724737 0.20395938 0.07750179 0.22662993 0.45519218 -0.78028196 0.38933414 -0.38017005 0.15006611 0.09534617 0.19395296 -0.24009459 0.14453939 0.39698616 0.36446565 -0.8828969 -0.33561394 -0.3790045 -0.7492729 0.029476589 0.4372882 -0.48315915 0.8492985 -0.36537302 0.6756517 -0.13693924 0.2866911 0.1503512 -1.0141118 -0.011283154 -0.004831374 0.4245259 -0.65061903 -0.20393412 -0.6830534 0.20802955 -0.33901003 -0.08811175 0.10925826 0.23035729 -0.4976429 0.7338348 0.1435009 -0.4318789 0.7218513 -0.75246245 -0.15093106 0.048911467 -0.058387727 -0.6467187 -0.1326152 -0.14695817 0.05819897 -0.09290835 0.45891666 0.27871308 0.29260096 0.2772613 0.20746028 0.2753988 -0.2105768 -0.31957918 -0.27782446 -0.3285822 0.4780005 -0.0782292 0.52356744 0.31578502 0.71089536 0.18854292 0.09494238 0.8351124 -0.2238036 -0.10354642 -0.3403188 0.22304276 0.2193224 -0.069660805 -0.124790385 0.3767818 0.46540794 -0.25180706 1.0905126 -0.19298504 0.7864665 -0.16270468 0.1278244 0.6305888 -0.36672112 -0.65531075 0.6038268 -0.026628321
- -0.5266504 0.37958425 0.2656715 -0.12477565 0.1195205 0.19761372 0.39947984 0.3100823 -0.23955809 0.31113553 0.062997065 -0.13879071 0.14829548 -0.48724136 0.2675928 -0.43333495 -0.011004594 -0.012189273 0.20373939 -0.27659583 -0.041673154 0.24883053 0.21013479 -0.47934017 -0.076250084 -0.16587928 -0.63205934 0.06156524 0.31990492 -0.23252635 0.48366773 -0.40197113 0.27821705 0.064500995 0.20379966 0.1668963 -0.74353176 -0.07878256 0.122422606 0.09372103 -0.48177642 -0.27694133 -0.64336836 0.2010769 -0.1776927 -0.2181646 -0.12634437 0.37246156 -0.16956809 0.53276205 0.046440117 -0.2491101 0.48311788 -0.41291338 -0.35316744 0.14811635 0.0451471 -0.40487596 0.07910897 -0.11145599 -0.01616007 -0.07139965 0.23794413 0.027158793 0.14705153 0.18817003 0.077676 0.22975248 0.060341295 -0.1927611 -0.21512875 -0.08523394 0.29061347 -0.17061684 0.14656475 0.28216684 0.51528937 0.08180645 0.121057 0.37743104 0.016920967 -0.17662808 -0.16030115 0.15463951 0.2506993 0.07772848 -0.16452529 0.42579573 0.20885691 -0.036430705 0.67028534 -0.06612291 0.44212112 0.09706568 0.11220251 0.07965497 -0.3913741 -0.29452977 0.41951555 0.0008029215
şəhər -0.50339067 0.015440093 0.17416978 0.02534832 0.030296255 0.29420498 0.06253013 0.19192095 -0.43535915 0.10331041 0.065250784 0.3077262 0.4416528 -0.6638988 0.3151581 -0.24939647 0.17389919 0.10762103 0.1393804 -0.15589227 0.17516874 0.33531633 0.31756902 -0.7774312 -0.335581 -0.34356344 -0.56104636 0.010917658 0.3392492 -0.43819967 0.7405843 -0.24414968 0.63534397 -0.17593421 0.2347455 0.08936198 -0.80729294 0.016108375 -0.058142453 0.41275415 -0.51097393 -0.11396869 -0.4840602 0.1461211 -0.29788288 0.0011984254 0.18660146 0.09344881 -0.46703607 0.58437395 0.13867503 -0.37099722 0.59226185 -0.6608402 -0.02823688 -0.007105149 -0.07997085 -0.5502212 -0.18601736 -0.121366225 0.05855789 -0.076276384 0.4071337 0.28120622 0.26012477 0.23110895 0.18874267 0.21083279 -0.2488048 -0.27089322 -0.21825434 -0.32472435 0.39984116 -0.017408002 0.5151114 0.22852616 0.56329566 0.1752076 0.048668914 0.7639256 -0.24298246 -0.044886712 -0.30599448 0.16895717 0.13463205 -0.10483706 -0.08010938 0.22868109 0.43214014 -0.2616897 0.9299919 -0.18571723 0.6887113 -0.21662189 0.11105261 0.65016407 -0.2470882 -0.6001066 0.48649803 -0.017847521
yaşayış -0.5408952 0.12909894 0.20747584 -0.020088838 0.0675837 0.28633386 0.15625086 0.23825888 -0.38644046 0.16472301 0.06182086 0.1899426 0.37465516 -0.6346818 0.30911735 -0.30836302 0.124468535 0.07431675 0.15702967 -0.19811793 0.11839382 0.3297089 0.28943464 -0.72019947 -0.2730718 -0.30688554 -0.60528463 0.018238135 0.35696438 -0.39209366 0.69491345 -0.29683778 0.5626452 -0.1128736 0.22932349 0.1269888 -0.8294432 -0.008090184 -0.0071400707 0.33778775 -0.5340186 -0.16423605 -0.5564958 0.16544123 -0.27471754 -0.074603565 0.084822625 0.18870205 -0.4124158 0.5964436 0.118553974 -0.35275248 0.58726376 -0.6139381 -0.121688105 0.038209688 -0.042213634 -0.53229815 -0.106603146 -0.119324975 0.04667872 -0.075714484 0.37603483 0.22318476 0.24053936 0.22498196 0.16704239 0.22150117 -0.16971704 -0.2605429 -0.23030233 -0.26451385 0.38030937 -0.05860286 0.42512968 0.25556737 0.5747065 0.15802094 0.072107166 0.6763862 -0.17505114 -0.08636888 -0.27912036 0.18380155 0.18062218 -0.053869557 -0.1056535 0.30421436 0.38104555 -0.20923725 0.8888058 -0.15878737 0.6406979 -0.1274939 0.10527608 0.5073277 -0.2968405 -0.53550917 0.49355376 -0.021490704
kimi -0.6626244 0.0877221 0.24163206 0.009916028 0.054560028 0.36711282 0.13423158 0.2732484 -0.5205271 0.16707182 0.07854055 0.3157201 0.5256228 -0.82619697 0.40427616 -0.35068506 0.18745716 0.120442435 0.18642682 -0.21898398 0.18868622 0.42143998 0.3903913 -0.94947284 -0.39092925 -0.4207962 -0.74285454 0.02425142 0.44328514 -0.525336 0.90977997 -0.3375459 0.76086897 -0.18579969 0.29712033 0.13479494 -1.0391246 0.0071603414 -0.040523432 0.49419215 -0.664597 -0.17209563 -0.6615527 0.1993142 -0.36565492 -0.04449383 0.17193 0.17848483 -0.5624707 0.7503831 0.16656962 -0.460962 0.7491624 -0.8098346 -0.088134155 0.020038713 -0.081967086 -0.68351555 -0.18932258 -0.15348928 0.06558862 -0.09337558 0.49529445 0.32912514 0.31778714 0.29032904 0.23041585 0.2738918 -0.27090713 -0.33639997 -0.27900743 -0.376998 0.5047673 -0.048110154 0.60196006 0.3049266 0.7250421 0.20980921 0.076019995 0.9199261 -0.27157015 -0.07865189 -0.37456676 0.22415784 0.19793226 -0.10381997 -0.11526893 0.34125006 0.516734 -0.29712182 1.1535732 -0.21972564 0.8432388 -0.22798637 0.13114808 0.7540375 -0.3378083 -0.71981716 0.62230355 -0.029759126
şəhərin -0.47833297 -0.057987798 0.15595943 0.0538525 0.010541541 0.29327154 0.014950939 0.15903649 -0.4695483 0.06759182 0.0685887 0.37753725 0.49261224 -0.679089 0.31327018 -0.23125269 0.19926192 0.123556204 0.13403167 -0.13770059 0.20294172 0.3316092 0.32335198 -0.8048373 -0.37363005 -0.36548823 -0.5301626 0.024415238 0.31418726 -0.46643555 0.76939875 -0.2084671 0.70233005 -0.21733354 0.24009266 0.06104653 -0.8120803 0.034450587 -0.09551018 0.45387128 -0.50961614 -0.09774203 -0.44886026 0.14965345 -0.3162042 0.057955183 0.24830057 0.039027568 -0.5133102 0.59080815 0.157156 -0.3912877 0.6182024 -0.6991578 0.015439733 -0.015104345 -0.105128124 -0.5608793 -0.24008363 -0.14074786 0.047986213 -0.08979278 0.4176178 0.30930832 0.26770738 0.23799434 0.1928851 0.20735711 -0.29158366 -0.27469584 -0.20966099 -0.3580995 0.39815015 0.019408785 0.56571555 0.20560022 0.54919165 0.18269458 0.042411458 0.80831075 -0.27677497 -0.021411031 -0.332203 0.14374009 0.09901638 -0.13170932 -0.06871636 0.1799911 0.46928355 -0.2837779 0.952344 -0.20454678 0.72423357 -0.2649249 0.13710926 0.72041076 -0.20551346 -0.6350248 0.47438154 -0.0081472285
Bu -0.6254998 0.30618283 0.27570572 -0.08310809 0.112403266 0.29133058 0.32022238 0.32405326 -0.352535 0.2660445 0.07004095 0.012933679 0.288567 -0.64161104 0.33571067 -0.41909543 0.0625262 0.031039992 0.19488123 -0.26731187 0.051270064 0.33551246 0.28176117 -0.68709403 -0.1982269 -0.26985928 -0.71817106 0.02679537 0.40059787 -0.36044985 0.6812886 -0.40359882 0.46992114 -0.020920059 0.24802312 0.17755759 -0.89964676 -0.047979094 0.07557299 0.2510995 -0.5874296 -0.25167546 -0.699506 0.20455723 -0.26267886 -0.1810364 -0.041722357 0.3319921 -0.33386812 0.6519317 0.09065233 -0.33915693 0.6118558 -0.5797511 -0.263541 0.099857904 0.0018359186 -0.54386204 -0.011448322 -0.119274996 0.036044534 -0.075480826 0.3476891 0.1566149 0.22308026 0.23269865 0.14422259 0.25876623 -0.058142815 -0.26606008 -0.25436464 -0.20304878 0.3859288 -0.14373095 0.32176122 0.31738734 0.63595635 0.1407012 0.11316289 0.59698576 -0.08762678 -0.1563088 -0.24760282 0.21093263 0.25541013 0.026577787 -0.14944781 0.43555313 0.336611 -0.13667385 0.889782 -0.12336924 0.61359966 -0.009945964 0.10711818 0.33759642 -0.40382156 -0.46969557 0.53301287 -0.017662326
onun -0.6203565 0.06107305 0.21830378 0.017196162 0.051987648 0.35236388 0.105628625 0.24708293 -0.5071936 0.1432241 0.08098993 0.3223012 0.51197207 -0.7866787 0.37452438 -0.32907364 0.18937756 0.11630995 0.17260067 -0.20273902 0.19240683 0.39668047 0.37288442 -0.90808463 -0.37738052 -0.40568087 -0.69660664 0.020229964 0.4173943 -0.51128304 0.87576294 -0.312229 0.7450561 -0.19323851 0.28330487 0.12022059 -0.99182594 0.011341598 -0.04404988 0.4770689 -0.6252928 -0.15796007 -0.61081034 0.18821222 -0.3548184 -0.022856098 0.18088387 0.1504044 -0.54900444 0.71362686 0.16231759 -0.43910277 0.7209851 -0.7786901 -0.06896294 0.0120126065 -0.08906391 -0.6557058 -0.19913775 -0.15111214 0.061188843 -0.08983602 0.4733232 0.32025105 0.30874082 0.27374932 0.21566436 0.25885746 -0.2717425 -0.32100898 -0.26395074 -0.36890745 0.4720608 -0.032319203 0.5892315 0.28154156 0.68066853 0.20580013 0.071803376 0.88588893 -0.26882634 -0.06444577 -0.35907394 0.20595294 0.17247961 -0.10522493 -0.10635597 0.3105804 0.50257677 -0.2904142 1.1042819 -0.21032995 0.80920374 -0.23586726 0.12698233 0.7378311 -0.31209973 -0.6952979 0.59087676 -0.025737483
öz -0.5558502 0.15343644 0.21846783 -0.026045213 0.07240043 0.2843673 0.18128833 0.24725565 -0.3852212 0.17805238 0.06432831 0.16218574 0.36279035 -0.63673156 0.31663328 -0.32604465 0.11647242 0.06904266 0.16117883 -0.20305851 0.11572822 0.330695 0.29459533 -0.7193648 -0.266056 -0.3097456 -0.6239277 0.0203217 0.3688194 -0.39192238 0.69715863 -0.31508926 0.54813296 -0.10085094 0.23702566 0.13332786 -0.8464349 -0.013458147 0.010875894 0.3382466 -0.53743446 -0.17723806 -0.5793854 0.17539605 -0.27937546 -0.090287134 0.07030458 0.21037106 -0.40006804 0.6066283 0.1143404 -0.35003337 0.59439075 -0.6130796 -0.13953175 0.044293735 -0.040868737 -0.53907543 -0.09753586 -0.118763804 0.046561692 -0.07159778 0.37068826 0.21531548 0.23814605 0.23504332 0.16714051 0.22668932 -0.15354155 -0.26274243 -0.23210464 -0.25894794 0.38829324 -0.073666885 0.41435674 0.26559266 0.5900025 0.15377025 0.08430236 0.6703872 -0.16738501 -0.093006834 -0.2723248 0.18716092 0.19015601 -0.041576926 -0.10600839 0.32267243 0.37404194 -0.19463654 0.89394695 -0.15287344 0.64344436 -0.11325168 0.10197941 0.4931707 -0.30930027 -0.52257687 0.49661225 -0.018082073
yeni -0.55105555 0.018628864 0.18382332 0.025951328 0.03350299 0.31796357 0.06517435 0.2078206 -0.46243045 0.11022642 0.06687173 0.32690397 0.47913325 -0.7140312 0.34089848 -0.26825583 0.18345696 0.11428735 0.14875986 -0.16769052 0.19174172 0.35938856 0.3340203 -0.8293915 -0.36164802 -0.37501302 -0.6089777 0.015910732 0.36932692 -0.46831164 0.7929273 -0.26185033 0.68918383 -0.19348988 0.2545417 0.102192625 -0.87801987 0.016216135 -0.057994895 0.45348182 -0.556023 -0.12167852 -0.5285827 0.16224548 -0.3236124 -0.009044433 0.19018826 0.10736026 -0.5117444 0.6345613 0.15208262 -0.4033279 0.6440182 -0.7117619 -0.029826201 -0.0029202863 -0.08536945 -0.5917823 -0.1971733 -0.1339431 0.06475736 -0.078127034 0.4348415 0.3035043 0.28305876 0.2448329 0.2039368 0.22306888 -0.26899737 -0.29221722 -0.23188695 -0.34706432 0.43179524 -0.017902566 0.55223334 0.24806164 0.6095132 0.19111429 0.053623803 0.8191918 -0.25790274 -0.04528733 -0.33376366 0.18876527 0.14757787 -0.10889501 -0.08667905 0.25527117 0.462932 -0.28122407 1.000229 -0.20370291 0.74175525 -0.23725429 0.109511 0.7020273 -0.25962627 -0.64680016 0.52506775 -0.027337842
çox -0.42842403 0.11139397 0.16516836 -0.019044498 0.05445375 0.22295956 0.13301569 0.18932216 -0.30543205 0.13259363 0.053691726 0.13509144 0.2893985 -0.49890453 0.24568324 -0.24944592 0.091224305 0.05380752 0.12687686 -0.15884049 0.092318684 0.25285843 0.23063584 -0.5560515 -0.21129858 -0.2429843 -0.48283297 0.015708975 0.27993208 -0.3041086 0.54877853 -0.23999648 0.43190998 -0.08104761 0.1849443 0.10136461 -0.65566826 -0.014316769 -0.0029085053 0.26400453 -0.42054963 -0.13354693 -0.44356555 0.13336894 -0.21554251 -0.06512821 0.06504028 0.15401135 -0.31631467 0.4703342 0.08995897 -0.27235216 0.46739903 -0.4787249 -0.102036856 0.03139446 -0.033559017 -0.4169256 -0.07769143 -0.093122795 0.038511556 -0.054821752 0.2927758 0.1736832 0.18807067 0.17565374 0.13318792 0.17275977 -0.124726735 -0.20556776 -0.18042284 -0.2028538 0.30580348 -0.051796895 0.33192593 0.20312352 0.45746812 0.124182 0.059202533 0.5256616 -0.13135049 -0.06844812 -0.21691808 0.14782834 0.14198263 -0.03808208 -0.083768204 0.24781618 0.29733253 -0.16039646 0.69936574 -0.12453924 0.49515945 -0.09238168 0.08024666 0.3970578 -0.24522388 -0.41808563 0.38512498 -0.013079723
daha -0.5517834 0.081669144 0.20133711 -0.00023521282 0.056657426 0.3008082 0.12333588 0.22267944 -0.43168676 0.14797069 0.07021065 0.25166777 0.42810047 -0.6807066 0.32902306 -0.3021509 0.14823805 0.09066452 0.1540774 -0.18761304 0.15383841 0.3475169 0.31838125 -0.7766301 -0.31140977 -0.34237045 -0.61798763 0.02364442 0.36748382 -0.43137434 0.7489846 -0.2882632 0.6228306 -0.14759251 0.24401096 0.12039009 -0.8717089 0.00031578756 -0.028911142 0.39682072 -0.5542105 -0.15378536 -0.5569759 0.16824315 -0.3027253 -0.04725756 0.13600948 0.16068389 -0.45885703 0.6277829 0.13573015 -0.37855247 0.62535125 -0.6662957 -0.08881876 0.023235641 -0.062666915 -0.5664848 -0.14621784 -0.123031326 0.05371654 -0.073462896 0.40506914 0.26112026 0.26631668 0.23974262 0.18550953 0.22658364 -0.21478842 -0.27983463 -0.23404464 -0.3055313 0.4121804 -0.039420053 0.4886634 0.25879508 0.6103601 0.17589879 0.06783003 0.75181866 -0.21513438 -0.06825226 -0.3029819 0.18455037 0.16605036 -0.07702989 -0.100031 0.29204658 0.42291877 -0.24056196 0.9585528 -0.17641264 0.69638705 -0.17747416 0.107335046 0.60444176 -0.28602332 -0.5922997 0.5162521 -0.025736693
böyük -0.49464357 0.11815931 0.18994962 -0.017326118 0.05654124 0.2611498 0.14403377 0.2189727 -0.3519603 0.14954321 0.057978336 0.16882858 0.34199366 -0.57887214 0.2845497 -0.28200004 0.11344895 0.06890243 0.14243385 -0.1804381 0.11126031 0.29647195 0.26736525 -0.65668076 -0.24910218 -0.28229198 -0.5571574 0.019742308 0.32794297 -0.3594881 0.63300216 -0.27202028 0.51129794 -0.105954014 0.21177591 0.118577406 -0.7559252 -0.0072980197 -0.004418992 0.31450745 -0.48625723 -0.14776519 -0.5092891 0.15289102 -0.25569594 -0.06941016 0.082701944 0.17277016 -0.37227717 0.5454558 0.103875555 -0.32078418 0.53936243 -0.5613673 -0.110672146 0.03478431 -0.043319184 -0.48579064 -0.10153245 -0.10672815 0.04934023 -0.06425023 0.33666766 0.20535326 0.22520144 0.20819522 0.15093464 0.20381795 -0.15526478 -0.23945192 -0.21038277 -0.24106944 0.35645995 -0.061097678 0.39187402 0.2299465 0.5297994 0.14542222 0.06458902 0.62038344 -0.16091482 -0.075669155 -0.25386903 0.16493379 0.1600082 -0.047594935 -0.09583876 0.2809265 0.34560663 -0.1867007 0.8108741 -0.14683834 0.5847088 -0.11842584 0.09168013 0.4684166 -0.27435333 -0.489349 0.45017767 -0.02071319
yerli -0.5656015 0.019496426 0.19082646 0.026574526 0.037096772 0.32547256 0.06904264 0.21546793 -0.47771034 0.11425036 0.06960767 0.33101237 0.4924056 -0.73037785 0.34905797 -0.2781562 0.19133826 0.11823013 0.15042 -0.17287932 0.19463004 0.3686168 0.34207985 -0.8520827 -0.37143922 -0.38501474 -0.626889 0.015307904 0.37900254 -0.4779455 0.8171212 -0.27070084 0.7070721 -0.19511959 0.26168016 0.109064534 -0.9043627 0.02133363 -0.060755707 0.46209213 -0.5721612 -0.12670657 -0.5436645 0.16745321 -0.33158568 -0.008528495 0.19472246 0.109451436 -0.52990115 0.6555217 0.15837617 -0.4106204 0.661829 -0.73440707 -0.035980158 0.0038737373 -0.08775623 -0.6061221 -0.20115551 -0.13390088 0.0637738 -0.084550835 0.44234782 0.31203097 0.28866333 0.25833842 0.21029821 0.23109889 -0.2727171 -0.3007412 -0.23889971 -0.35578135 0.44648957 -0.018968083 0.56726 0.25203156 0.62764055 0.1930797 0.054010227 0.8423993 -0.26284644 -0.045507744 -0.34156656 0.19687921 0.15618886 -0.10902198 -0.089513175 0.26051822 0.47748956 -0.2878994 1.0295929 -0.20957862 0.7628722 -0.23889619 0.11757676 0.71909463 -0.268418 -0.66155785 0.5444492 -0.027805546
Bakı -0.63730896 0.25664002 0.2675293 -0.0634743 0.10215684 0.31318888 0.28033215 0.31180224 -0.38940123 0.24294701 0.07166208 0.08074096 0.34558457 -0.6861871 0.35284746 -0.40865046 0.09175609 0.05443792 0.19584808 -0.2589987 0.080435924 0.3621382 0.30464813 -0.75265473 -0.24360849 -0.303237 -0.72839695 0.028842853 0.41676584 -0.4010453 0.737868 -0.39519432 0.54113543 -0.05684084 0.2597809 0.17468384 -0.94216484 -0.033685748 0.050537005 0.30679545 -0.6099489 -0.23613125 -0.69911414 0.20611502 -0.28927475 -0.15048525 0.005842529 0.29811782 -0.39040422 0.6806646 0.10688078 -0.37136677 0.6446961 -0.64074224 -0.22991213 0.08196803 -0.015642785 -0.5797094 -0.05353963 -0.12496877 0.047993876 -0.082212634 0.38902193 0.19296129 0.24810798 0.24781221 0.16269541 0.26345232 -0.104481444 -0.28531602 -0.26461923 -0.24106008 0.41667092 -0.11817988 0.3830323 0.31611484 0.65620655 0.15364206 0.107398085 0.6731155 -0.13189462 -0.13661958 -0.273124 0.21684313 0.24361089 -0.0057243034 -0.14527865 0.41689286 0.37793636 -0.173959 0.9539344 -0.14946163 0.6707287 -0.060047325 0.11463737 0.4319678 -0.3934228 -0.5323311 0.5561008 -0.023150356
müəyyən -0.52809775 0.06195225 0.19183658 0.0071976734 0.04750919 0.30018842 0.09878223 0.21167989 -0.42190906 0.12943234 0.060226317 0.265235 0.42385924 -0.6584603 0.31861645 -0.2815158 0.15254666 0.09460149 0.14336607 -0.17457612 0.16060938 0.33436894 0.31164962 -0.761233 -0.3208562 -0.33547497 -0.5840561 0.013857121 0.35508114 -0.42522252 0.7314619 -0.26552415 0.6162528 -0.15341604 0.23124295 0.10514036 -0.83246934 0.011350911 -0.034431934 0.39462405 -0.52643293 -0.13688715 -0.5222087 0.15956539 -0.29861584 -0.032052383 0.14265697 0.13773285 -0.4648162 0.6018438 0.13609906 -0.36510164 0.60391724 -0.6476511 -0.06139977 0.016615255 -0.06305068 -0.5503808 -0.1582949 -0.12361378 0.05149189 -0.06989892 0.3947425 0.26579556 0.25517628 0.22792229 0.17982365 0.21299797 -0.22039102 -0.2649353 -0.21891151 -0.3043238 0.3969763 -0.03187883 0.48816922 0.24624452 0.574846 0.16703583 0.063574046 0.7350037 -0.2227022 -0.059320617 -0.29972762 0.17805515 0.15062815 -0.07630841 -0.09337678 0.2710842 0.41431838 -0.23924647 0.92643756 -0.17942739 0.6756165 -0.18489593 0.10684934 0.6070084 -0.27038157 -0.58136606 0.49696743 -0.026305588
istifadə -0.5125679 0.030344205 0.17210145 0.016552046 0.03787075 0.29714596 0.06774377 0.19409041 -0.42765525 0.113236435 0.059330627 0.29022044 0.43447408 -0.65517515 0.31395188 -0.25460982 0.16379596 0.10507914 0.13710041 -0.15947017 0.16687012 0.3341917 0.31549144 -0.76649696 -0.3278603 -0.34321555 -0.5672887 0.016211122 0.34397483 -0.4282774 0.73492056 -0.24670601 0.6261277 -0.16507299 0.23125416 0.10078 -0.8205924 0.013910377 -0.04913996 0.41065803 -0.5195797 -0.11923361 -0.4950312 0.14984962 -0.29334915 -0.012352293 0.1690197 0.11120598 -0.46839574 0.59430104 0.14004052 -0.36881846 0.5995259 -0.65318733 -0.038291644 0.00036086218 -0.07261792 -0.54777056 -0.17399532 -0.11669738 0.054354623 -0.07469733 0.3964131 0.27674568 0.25905544 0.22860247 0.18849176 0.20617262 -0.23641959 -0.2688715 -0.21912323 -0.31511995 0.39637908 -0.018492008 0.5076883 0.23106825 0.5687939 0.17243056 0.055540122 0.75135493 -0.23177862 -0.046930637 -0.30556455 0.16698778 0.13907832 -0.09199612 -0.08793057 0.24687414 0.41560277 -0.25107226 0.919173 -0.17756052 0.6788788 -0.20775317 0.106464766 0.635991 -0.24869484 -0.583169 0.48352388 -0.02296748
ümumi -0.5396074 0.10187223 0.19881183 -0.0022228677 0.053564772 0.2926736 0.1317011 0.23007241 -0.40432557 0.14657211 0.061472923 0.22314166 0.4004335 -0.650368 0.3218971 -0.297955 0.14052208 0.08675044 0.1524127 -0.18397345 0.13806337 0.33654842 0.3010327 -0.7432942 -0.2947289 -0.32187185 -0.60121447 0.020575896 0.3565319 -0.4143526 0.71595573 -0.287018 0.58918285 -0.13195994 0.23546226 0.119508944 -0.83559155 -0.0014659337 -0.016064895 0.3744019 -0.5306714 -0.15114497 -0.53976303 0.16075966 -0.28737044 -0.05203501 0.11367378 0.165506 -0.433368 0.60097384 0.12405275 -0.3582001 0.5952094 -0.638156 -0.09752531 0.028547922 -0.05601115 -0.5412144 -0.13390289 -0.12417407 0.049607906 -0.0735691 0.38844335 0.2461598 0.25392732 0.23060468 0.17867908 0.21878047 -0.1910066 -0.26691732 -0.22564185 -0.28785244 0.39762717 -0.05088204 0.4600538 0.2511843 0.5782598 0.16483551 0.06472577 0.7127151 -0.19878706 -0.073152386 -0.29009932 0.18409137 0.1677418 -0.06936205 -0.099129185 0.29325548 0.4016617 -0.2252808 0.90866035 -0.16985361 0.66262245 -0.1564938 0.101714626 0.5615286 -0.28563058 -0.5601912 0.50014347 -0.025679132
edirdi. -0.6119834 0.09302373 0.22131239 0.009806354 0.0645929 0.32075623 0.12366064 0.26793337 -0.49125898 0.14314638 0.06431519 0.30668423 0.49711847 -0.7769283 0.39104986 -0.32274655 0.17734131 0.11808669 0.17667305 -0.20416285 0.1830681 0.39717695 0.37660235 -0.88139117 -0.36717013 -0.37320602 -0.69797796 0.017947288 0.4262683 -0.49075785 0.84323716 -0.30548632 0.6987306 -0.17973891 0.2753923 0.12924168 -0.97669846 -0.0027564538 -0.021055026 0.48016146 -0.61536187 -0.15455976 -0.62085086 0.17372511 -0.33789638 -0.040729985 0.14962614 0.16705383 -0.52277887 0.680096 0.16276576 -0.42791185 0.6839181 -0.74831986 -0.07891769 0.0139399925 -0.06253618 -0.634013 -0.17574386 -0.15057942 0.040262237 -0.06481569 0.4691924 0.32001698 0.31163046 0.2622786 0.21347666 0.25522733 -0.25147486 -0.30306062 -0.25985444 -0.37212852 0.49619657 -0.042595122 0.5642802 0.270864 0.6774283 0.19049439 0.059636172 0.8634853 -0.25759107 -0.07238944 -0.33898804 0.22186373 0.17664486 -0.11993145 -0.1063355 0.33430636 0.48402646 -0.2770383 1.0706279 -0.1977715 0.7797026 -0.23160715 0.09955041 0.72214025 -0.29751256 -0.6798066 0.5828858 -0.04987867
planlaşdırma -0.5495714 0.0768365 0.19822715 0.005505946 0.047639262 0.30604988 0.11118198 0.2232099 -0.43602824 0.13433997 0.06243531 0.264574 0.43591014 -0.68445253 0.33391118 -0.29370672 0.15565787 0.09780372 0.15221281 -0.179906 0.15345484 0.35227317 0.32238835 -0.78747374 -0.3244648 -0.34559175 -0.61215574 0.020982701 0.37153372 -0.43826628 0.75782657 -0.2843196 0.6337038 -0.15631865 0.24534643 0.11256093 -0.8691187 0.0069213496 -0.032805044 0.40390006 -0.5523362 -0.14316267 -0.54784167 0.16265228 -0.3033553 -0.038514204 0.14211659 0.15056197 -0.47167015 0.6239541 0.13856731 -0.38547525 0.6284978 -0.6732378 -0.073634826 0.020073956 -0.067528985 -0.5703172 -0.16092691 -0.12688561 0.048320647 -0.073281154 0.41657853 0.26982808 0.26808977 0.23176388 0.18209091 0.2263671 -0.22196127 -0.27731207 -0.23260544 -0.31380647 0.4141057 -0.034206055 0.4968318 0.25099018 0.5967186 0.17535365 0.06331961 0.7604189 -0.22379772 -0.06544677 -0.31075904 0.18864869 0.16029991 -0.08193183 -0.10106042 0.28245082 0.42949048 -0.245599 0.953441 -0.17840298 0.69694954 -0.18515565 0.10950007 0.6236988 -0.28299174 -0.6011085 0.51848114 -0.02459003
bütün -0.5308118 0.07578753 0.19652748 0.0037923413 0.05005499 0.2915665 0.11409732 0.21903346 -0.41867238 0.13547996 0.066132806 0.24659777 0.41296387 -0.65815586 0.3174407 -0.2861204 0.1496851 0.092744395 0.1492403 -0.17848301 0.15065783 0.33427152 0.30657917 -0.75339794 -0.30780524 -0.33076388 -0.5915435 0.018935911 0.3513627 -0.42130518 0.7311548 -0.27550185 0.60559183 -0.14743274 0.23986201 0.111862645 -0.83739823 0.0047596707 -0.02854806 0.38447672 -0.5328314 -0.14427114 -0.5282324 0.16314127 -0.29271683 -0.040225517 0.13388607 0.14816274 -0.4502378 0.6043306 0.13081712 -0.3652655 0.6044145 -0.6465992 -0.07686879 0.017119879 -0.062336672 -0.5440973 -0.14800818 -0.12372665 0.053778633 -0.07869676 0.39459813 0.2557529 0.25561026 0.2294644 0.17779352 0.22077133 -0.2076499 -0.26810992 -0.22460422 -0.2960347 0.39849657 -0.039467882 0.47633243 0.24463145 0.5779991 0.16839248 0.063061744 0.72785634 -0.20963518 -0.06410023 -0.29672673 0.17853403 0.15627372 -0.076974235 -0.09411516 0.27304518 0.4112829 -0.23357409 0.9177769 -0.17185907 0.6726804 -0.17383194 0.10684631 0.5887 -0.27213454 -0.5723124 0.49971533 -0.017211514
şəkildə -0.5093302 0.035643503 0.17462772 0.01500789 0.036510676 0.28911898 0.07014281 0.19911848 -0.42316434 0.1099145 0.061662976 0.28362674 0.42763412 -0.651108 0.3127186 -0.25424346 0.16290583 0.10044191 0.13991694 -0.15987137 0.16454329 0.3296388 0.3129067 -0.7588284 -0.3223008 -0.33725813 -0.5693947 0.01453904 0.34364665 -0.42528647 0.72183543 -0.24793567 0.6161762 -0.1622925 0.23288727 0.099073574 -0.81354135 0.011467802 -0.045923933 0.40686685 -0.513012 -0.12021682 -0.49884692 0.14806986 -0.29288438 -0.015339163 0.16613996 0.11265575 -0.46159267 0.58729213 0.13544689 -0.36857262 0.5924275 -0.6440944 -0.039381318 0.0022483561 -0.07144433 -0.5413994 -0.1651856 -0.11731155 0.053530756 -0.06976864 0.39741933 0.27407384 0.26079965 0.2268701 0.18660933 0.20896028 -0.23276538 -0.26396298 -0.2171442 -0.31343922 0.39719084 -0.024077987 0.49903297 0.22855039 0.568774 0.16782309 0.052661434 0.74629366 -0.23128086 -0.049226996 -0.30053672 0.17205717 0.14056754 -0.096421435 -0.08434165 0.24827427 0.4125188 -0.24782625 0.91331095 -0.17499137 0.67233175 -0.20061389 0.0999155 0.6256984 -0.2504856 -0.57949895 0.4842993 -0.024296844
XIX -0.68253416 0.5399968 0.3552539 -0.18521966 0.17148021 0.23964557 0.576022 0.4161492 -0.28103048 0.44487438 0.08740104 -0.2562999 0.14528 -0.59522104 0.34233737 -0.59123164 -0.045266684 -0.043550927 0.27643937 -0.37669992 -0.09171938 0.3081314 0.25150448 -0.5751771 -0.06045264 -0.18477282 -0.8223222 0.09246014 0.40648183 -0.2710252 0.58416045 -0.5467473 0.30170876 0.119641624 0.25875092 0.2260103 -0.9437269 -0.12359879 0.17414108 0.07560323 -0.6257782 -0.37380388 -0.8558017 0.26799726 -0.21957259 -0.30315524 -0.2150491 0.5247359 -0.1715151 0.67478544 0.0418698 -0.30053103 0.6087007 -0.5030217 -0.5109331 0.21909869 0.07608278 -0.4908405 0.13012353 -0.14820454 -0.040148817 -0.10569712 0.26479152 -0.0078008533 0.17973006 0.23854387 0.06579108 0.3090276 0.13263771 -0.24038187 -0.28027764 -0.08483616 0.35822368 -0.2510028 0.12958385 0.3767779 0.6668293 0.08696846 0.17440166 0.41915026 0.061494946 -0.26024204 -0.1890568 0.19886963 0.34768 0.12895909 -0.22203091 0.57718295 0.23391578 -0.018222785 0.81705314 -0.08068524 0.5418261 0.18567148 0.16050303 0.01632041 -0.53269154 -0.33234602 0.5143414 0.009658105
əsas -0.56319636 0.18503433 0.23271385 -0.042341378 0.08247896 0.28759286 0.22436294 0.26452726 -0.38182592 0.20557763 0.0735623 0.12728654 0.34483254 -0.6403302 0.32247287 -0.36034745 0.10339522 0.06169849 0.17952937 -0.22295125 0.0916102 0.32576686 0.2925965 -0.7108949 -0.2483028 -0.29475662 -0.6447774 0.03209184 0.36810702 -0.38488257 0.6922893 -0.33451656 0.5304921 -0.08401063 0.23724712 0.1393089 -0.85931075 -0.020858428 0.01804125 0.31266016 -0.55437636 -0.20303497 -0.60763955 0.19084397 -0.27550787 -0.102122664 0.050476927 0.23834965 -0.38136652 0.62236965 0.113404505 -0.3511597 0.60660607 -0.60477996 -0.1786794 0.07055138 -0.029030237 -0.532261 -0.08069597 -0.12763962 0.02775367 -0.07898916 0.36445782 0.19907781 0.23324081 0.22925428 0.1479621 0.2368017 -0.12652734 -0.25968486 -0.23561475 -0.24278776 0.3865797 -0.0856243 0.39453205 0.273883 0.5933252 0.15147771 0.093272455 0.65408176 -0.1463016 -0.109039076 -0.2726105 0.18458049 0.19877161 -0.027693033 -0.12643202 0.3516219 0.36772192 -0.17851251 0.89166003 -0.14771256 0.63598835 -0.08832206 0.11685233 0.44916692 -0.33649632 -0.5123845 0.502844 -0.016572757
tərəfindən -0.49574894 -0.02571779 0.16241482 0.04175051 0.02344392 0.29753384 0.028784676 0.17575452 -0.45031565 0.08572274 0.062016875 0.34924832 0.47407612 -0.6775502 0.31449682 -0.23801889 0.18929441 0.11981136 0.13117276 -0.14428039 0.19102742 0.33590376 0.3200009 -0.7914347 -0.3589182 -0.35782662 -0.54664654 0.0145693235 0.3377352 -0.45272425 0.7582415 -0.21955529 0.6736157 -0.19731562 0.23612262 0.08067725 -0.81654304 0.026632912 -0.07532917 0.4450657 -0.5153621 -0.10130088 -0.4680803 0.14520167 -0.30765545 0.018214235 0.21292916 0.06806169 -0.50306344 0.5922052 0.15152687 -0.38265616 0.6103241 -0.6805472 -0.0025649345 -0.014551043 -0.09191367 -0.5548104 -0.2109473 -0.12719893 0.0542184 -0.074392505 0.41263863 0.30391142 0.2670249 0.2301513 0.19290143 0.2039464 -0.27784887 -0.27086058 -0.21257551 -0.3391543 0.40626442 0.007753476 0.54696757 0.2171539 0.5633527 0.17945467 0.046008095 0.79344404 -0.265556 -0.03142485 -0.3201724 0.16230506 0.11717563 -0.120086305 -0.075957306 0.21294187 0.4463756 -0.27902725 0.9443525 -0.19439098 0.7064542 -0.24671775 0.11500029 0.70066226 -0.22358668 -0.620422 0.48882604 -0.023361417
geniş -0.5416639 0.1296049 0.20463543 -0.01784747 0.06362443 0.28232366 0.15941939 0.24021319 -0.38440248 0.16173096 0.061994508 0.18518108 0.37148285 -0.6347855 0.31635982 -0.30552918 0.12421356 0.07387086 0.15741391 -0.19360562 0.12184597 0.32450682 0.29117164 -0.7185628 -0.2746963 -0.30419505 -0.60960037 0.020965777 0.35809278 -0.39338422 0.69286805 -0.29819006 0.5537852 -0.11139642 0.23159717 0.12226587 -0.8295422 -0.011215602 -0.001184162 0.34335294 -0.5324729 -0.1638996 -0.55622375 0.16291007 -0.2722126 -0.07426958 0.085367195 0.18590476 -0.4047649 0.5951556 0.11753846 -0.35136792 0.583488 -0.6091253 -0.12436387 0.03304966 -0.042147536 -0.52997226 -0.111624435 -0.11675427 0.046607733 -0.06748023 0.3736056 0.22617991 0.24023727 0.22419631 0.16588427 0.21869428 -0.17012884 -0.2575787 -0.22376475 -0.26690894 0.38570356 -0.062334884 0.42467695 0.25334036 0.5753333 0.15535335 0.07222785 0.6749434 -0.17724875 -0.08391975 -0.27179232 0.18195933 0.17881711 -0.051617377 -0.10422243 0.30651492 0.38044238 -0.20817514 0.8890359 -0.15622222 0.64145666 -0.13316646 0.10081922 0.5153217 -0.2986188 -0.53397685 0.4882673 -0.024336237
təşkil -0.5195559 0.081255026 0.19412398 -0.0016193852 0.049159497 0.28712338 0.110237375 0.21600282 -0.39455786 0.13819674 0.05343006 0.23484989 0.3928341 -0.63326174 0.30704284 -0.2760564 0.13879812 0.088177465 0.1427267 -0.17828892 0.14160538 0.32624003 0.29597387 -0.72797155 -0.30100417 -0.31723228 -0.5817753 0.01153332 0.3477273 -0.40210322 0.7022312 -0.2641499 0.5771656 -0.13605098 0.22569638 0.10648551 -0.80614966 0.0030943262 -0.029294312 0.3710481 -0.51667213 -0.13921359 -0.5180766 0.15328412 -0.2806065 -0.045074016 0.123479076 0.14511946 -0.43292156 0.5865386 0.12678018 -0.35580355 0.5789416 -0.6161027 -0.078567944 0.01961747 -0.05758835 -0.5299277 -0.13742705 -0.11392448 0.049295936 -0.06794332 0.3789303 0.24851927 0.24326201 0.22169101 0.1701029 0.21040827 -0.20381527 -0.25431725 -0.21443781 -0.28342548 0.38120717 -0.03657227 0.45976162 0.24294585 0.5598866 0.16027212 0.0700408 0.6938855 -0.19809055 -0.06557665 -0.28315756 0.17733853 0.15894178 -0.068527564 -0.09279136 0.27369332 0.3863922 -0.2239604 0.8864214 -0.16234611 0.6490344 -0.1650549 0.10025259 0.5582024 -0.268872 -0.5520539 0.48071867 -0.018301215
olaraq -0.55366373 0.0090493215 0.18200554 0.03184292 0.031023053 0.32109076 0.050240487 0.20499997 -0.47893563 0.0962975 0.06217826 0.34711897 0.49720103 -0.72119397 0.33987743 -0.2635563 0.19331883 0.123639606 0.14358634 -0.16456361 0.1965789 0.36783394 0.3403179 -0.8488346 -0.36991292 -0.38348874 -0.6094106 0.016703611 0.37193236 -0.4833586 0.80940956 -0.2602128 0.7079678 -0.2054406 0.2564727 0.103566594 -0.88574487 0.022448814 -0.06253136 0.464792 -0.56138915 -0.11385845 -0.5239209 0.15902467 -0.32386586 0.0018340192 0.20482191 0.095836766 -0.5287337 0.6399831 0.15487881 -0.41250232 0.65503824 -0.72582066 -0.020846695 -0.010158804 -0.09114832 -0.60416555 -0.20912126 -0.12928239 0.06445327 -0.07749206 0.44571438 0.3186803 0.29408258 0.24941856 0.20425172 0.22456917 -0.28334942 -0.29685494 -0.23604183 -0.3578859 0.44174883 -0.009776683 0.5706733 0.24582632 0.6145031 0.19348502 0.051104967 0.8391039 -0.27594563 -0.04167936 -0.34043953 0.18595316 0.13761975 -0.118198246 -0.08652058 0.24952625 0.47554448 -0.29387647 1.0201691 -0.20392694 0.757564 -0.24813926 0.11203718 0.7323029 -0.25532615 -0.6582957 0.5383919 -0.026216699
isə -0.6335234 0.05480059 0.21667412 0.011768368 0.052296072 0.3603132 0.09995924 0.2464302 -0.5166912 0.14599223 0.07829885 0.33593732 0.52179915 -0.80096376 0.38467282 -0.3229561 0.19477332 0.121781275 0.17322175 -0.20197293 0.19757374 0.40360302 0.38048458 -0.9291816 -0.3883024 -0.4152345 -0.70170295 0.023462493 0.42348748 -0.5184589 0.8896661 -0.31418428 0.75511664 -0.1919471 0.28472427 0.12194842 -1.0025595 0.009810657 -0.058182735 0.48967224 -0.63476247 -0.15146658 -0.618745 0.1862819 -0.3557116 -0.030285079 0.18944281 0.1501694 -0.5631115 0.72393703 0.16458733 -0.44376022 0.72893894 -0.79400265 -0.060589135 0.006029822 -0.08772485 -0.6699489 -0.2002815 -0.14242965 0.067897886 -0.09138342 0.4847889 0.32578838 0.31484574 0.27914557 0.22580865 0.25469154 -0.27966678 -0.32815632 -0.27074027 -0.37246364 0.4866818 -0.034861907 0.60614 0.28528506 0.7022696 0.20715961 0.069839254 0.90441525 -0.2772067 -0.066097744 -0.36875695 0.20874377 0.176136 -0.10821693 -0.10936896 0.31150246 0.5051893 -0.30313608 1.1208436 -0.21702322 0.82232773 -0.23842855 0.12839487 0.7591375 -0.3161031 -0.7134481 0.59214973 -0.024230273
digər -0.49455863 0.029388698 0.16827239 0.018069424 0.04203543 0.281785 0.06943702 0.19209304 -0.4165283 0.108392656 0.05916319 0.28732195 0.4243483 -0.6428299 0.3086101 -0.24782321 0.15937959 0.10275937 0.13542557 -0.15444094 0.16446489 0.32549876 0.30534232 -0.7461474 -0.32262677 -0.32569233 -0.55479276 0.014884844 0.33620194 -0.41701925 0.71530825 -0.24004559 0.60815084 -0.16236266 0.2249062 0.09090679 -0.7858768 0.007740558 -0.044989023 0.40565836 -0.5028174 -0.112229384 -0.47656617 0.1451876 -0.2846818 -0.0102329515 0.16466966 0.10045582 -0.4464516 0.5630002 0.13615878 -0.35693654 0.57214844 -0.6299093 -0.035257623 -0.0036467991 -0.07084095 -0.53198147 -0.1725195 -0.11697383 0.051575013 -0.06989997 0.3905227 0.27093294 0.2577261 0.22647549 0.1816866 0.20708884 -0.2322938 -0.26148075 -0.21378827 -0.30920327 0.39665985 -0.021465955 0.49290323 0.22294466 0.55709726 0.16842252 0.050079346 0.73661715 -0.2304699 -0.046462882 -0.2958552 0.16910012 0.13374223 -0.09892314 -0.07981542 0.24158564 0.41211656 -0.24881615 0.897908 -0.1757309 0.6664252 -0.20632055 0.10359271 0.6268081 -0.24177569 -0.57622796 0.47872588 -0.024074407
görə -0.6276597 0.1283691 0.23073755 -0.017334688 0.0696938 0.33407143 0.1658738 0.2667614 -0.45855954 0.1826397 0.07334292 0.23615758 0.44694394 -0.7423906 0.36471245 -0.34874102 0.15319028 0.091779485 0.17771262 -0.21831225 0.15001836 0.38437298 0.34864205 -0.8462992 -0.32368886 -0.36587545 -0.7039353 0.022465484 0.41232887 -0.4677089 0.81862664 -0.33907196 0.6578484 -0.13937493 0.2665083 0.14312544 -0.9653847 -0.0076726293 -0.0134512335 0.41660082 -0.61500114 -0.18486632 -0.6425582 0.18908153 -0.32872492 -0.07349687 0.120364204 0.20239101 -0.4895233 0.69241726 0.13879034 -0.4083184 0.68989426 -0.7267418 -0.1176869 0.03224306 -0.061174616 -0.62105495 -0.13886462 -0.1346226 0.058207136 -0.08770938 0.44407994 0.26972893 0.28716704 0.2653666 0.197426 0.2544667 -0.21030103 -0.30427387 -0.25880486 -0.3251966 0.45290425 -0.06896821 0.51527923 0.29437217 0.677266 0.18316258 0.08318249 0.8089801 -0.21774635 -0.09121054 -0.3252694 0.21242021 0.20159158 -0.07131446 -0.116543345 0.34721914 0.45184052 -0.24689987 1.0420188 -0.18463844 0.75462914 -0.16630255 0.11802296 0.6218112 -0.33968428 -0.63003486 0.5714262 -0.02539461
qədər -0.55236304 0.04202119 0.19281144 0.018665273 0.04438895 0.31351805 0.08556065 0.21129735 -0.4560872 0.1215673 0.068359 0.30389258 0.46044135 -0.7112658 0.3420856 -0.28525558 0.17183359 0.10990754 0.15241173 -0.17496692 0.17578901 0.35553133 0.33637184 -0.82141733 -0.34594417 -0.36482888 -0.6173557 0.018086867 0.37003303 -0.45605555 0.788463 -0.26906884 0.66561365 -0.17209308 0.25086075 0.11058637 -0.87029535 0.0068198787 -0.045837764 0.43105933 -0.5549636 -0.12949243 -0.5342474 0.16246118 -0.31384516 -0.02254642 0.17830493 0.12341786 -0.49093765 0.6268232 0.14375345 -0.39421618 0.6377108 -0.69440615 -0.045690008 0.0032141192 -0.07722942 -0.5855429 -0.18169945 -0.1263389 0.05780539 -0.07739911 0.43042457 0.293464 0.28242442 0.24686348 0.19932514 0.2293123 -0.2500193 -0.2882579 -0.23955894 -0.3349159 0.43235278 -0.027297327 0.5377325 0.25278175 0.61962485 0.18189126 0.060793266 0.80662656 -0.24676546 -0.055764645 -0.32570282 0.18518785 0.15483925 -0.0991303 -0.090820774 0.27013278 0.45233417 -0.27157322 0.9913223 -0.19066688 0.7334967 -0.21721406 0.11983276 0.67388284 -0.27844945 -0.62836117 0.5287259 -0.02359222
iki -0.6710258 0.035890143 0.23249051 0.029499426 0.04806111 0.38637358 0.09505821 0.25686175 -0.5617136 0.15112779 0.08507203 0.38182977 0.57784456 -0.8647297 0.41507763 -0.34288234 0.21989632 0.14241682 0.18169948 -0.21179485 0.21295218 0.43370873 0.411265 -1.0082973 -0.43424425 -0.45745888 -0.7450024 0.028584266 0.45152077 -0.5624859 0.9627134 -0.3254258 0.83375865 -0.22098926 0.3080911 0.124552466 -1.0735381 0.019493947 -0.06761822 0.5440973 -0.68460065 -0.15617746 -0.6479987 0.20422027 -0.38906118 -0.013947241 0.22764352 0.14188722 -0.61661613 0.77668375 0.18685895 -0.48809448 0.785485 -0.86674535 -0.05055815 0.004982546 -0.10411388 -0.7185877 -0.22760038 -0.16350725 0.06987567 -0.099355206 0.5258702 0.35986274 0.3416798 0.3022705 0.249476 0.2781925 -0.32212418 -0.35742706 -0.2858696 -0.4117568 0.5305842 -0.02468479 0.66831183 0.3031402 0.7459913 0.22517654 0.072899245 0.98984146 -0.307353 -0.06533009 -0.40603438 0.22319981 0.18561044 -0.13482402 -0.10808822 0.32101208 0.55799544 -0.33901045 1.2184372 -0.24257019 0.9054139 -0.27503896 0.14542058 0.8390769 -0.32261065 -0.7742435 0.63920844 -0.02642462
inkişaf -0.48900083 0.04684557 0.17370997 0.011285498 0.039293375 0.27668735 0.08815226 0.19120479 -0.39350644 0.119468234 0.061961915 0.25110984 0.3975728 -0.61052996 0.29230273 -0.25763798 0.14408274 0.091243625 0.13375813 -0.1605678 0.14423205 0.31221277 0.28694284 -0.70838714 -0.2997267 -0.31594852 -0.54101044 0.019076997 0.32039908 -0.39686757 0.6825703 -0.24483047 0.5787328 -0.14606239 0.21851665 0.09482207 -0.7712006 0.011610758 -0.039083246 0.3708995 -0.49209964 -0.124765165 -0.47952405 0.14944328 -0.27321926 -0.02065842 0.1445183 0.11834531 -0.4305974 0.55987215 0.12512766 -0.34591654 0.56593376 -0.6079869 -0.059077058 0.01355044 -0.06593151 -0.5111446 -0.1510533 -0.11774394 0.044420436 -0.07024372 0.36593112 0.24671553 0.23636313 0.21204571 0.16790344 0.19752544 -0.21017818 -0.2499345 -0.20366144 -0.28566155 0.37277243 -0.027256554 0.45754692 0.22199462 0.5342118 0.15763168 0.0625005 0.68715763 -0.20376962 -0.052786913 -0.28219175 0.15954289 0.1406454 -0.079403274 -0.08414632 0.24231757 0.38918927 -0.22733766 0.8621168 -0.16900752 0.63695115 -0.17976205 0.108091384 0.5670803 -0.2431842 -0.5433643 0.4580841 -0.017701041
ayin -0.53182304 -0.013246217 0.17799544 0.034474187 0.02546694 0.31160024 0.054003738 0.18959615 -0.48218808 0.09884833 0.07093488 0.35469055 0.4971029 -0.71482474 0.33785754 -0.26790124 0.18916377 0.121410094 0.15217021 -0.16102822 0.19698726 0.3523761 0.3349609 -0.83594644 -0.37690538 -0.3783693 -0.5870332 0.021862753 0.35186514 -0.48061627 0.8077497 -0.24734852 0.71663773 -0.20792855 0.25204584 0.08433969 -0.8741566 0.02737107 -0.07571693 0.46125412 -0.55068403 -0.12198515 -0.5080277 0.1634461 -0.32361874 0.021543046 0.21422355 0.08816556 -0.52971756 0.6376821 0.16133602 -0.40673292 0.65989083 -0.7223861 -0.02103846 0.0011470973 -0.09576638 -0.5881215 -0.22067395 -0.14186372 0.047761858 -0.08699552 0.43452895 0.3079078 0.28376037 0.25020957 0.20246173 0.22398473 -0.2861 -0.28936857 -0.22367747 -0.3546348 0.42156014 0.005014115 0.5683826 0.23459092 0.59350425 0.18735892 0.05434001 0.8269371 -0.26783305 -0.038834266 -0.3390407 0.1665239 0.12484455 -0.11666776 -0.08443173 0.22783749 0.47692797 -0.2855901 1.0044745 -0.2087788 0.75169057 -0.24930844 0.13220616 0.71697015 -0.24682711 -0.6541118 0.5156481 -0.016974159
YAŞAYIŞ -1.0807967 1.169599 0.60492367 -0.4031757 0.36343807 0.35790032 1.1021935 0.7532276 -0.1635514 0.7630122 0.09523013 -0.79006046 -0.0953697 -0.7000691 0.45982066 -0.95823115 -0.23313498 -0.18047982 0.39955264 -0.6376225 -0.28259227 0.42299223 0.25938112 -0.60208774 0.12302194 -0.10283704 -1.2778006 0.044087403 0.6678016 -0.22462851 0.642173 -0.9416217 0.09475229 0.40810835 0.32692403 0.45830134 -1.3088425 -0.21630551 0.45975372 -0.16163926 -0.8946383 -0.66900086 -1.4194263 0.39658296 -0.2206557 -0.70787406 -0.66546535 1.0384742 -0.0071301404 0.92651135 -0.03379455 -0.31097695 0.7404652 -0.46980974 -0.9688089 0.39968964 0.23645848 -0.62174875 0.46347484 -0.12951246 0.01082417 -0.08788841 0.2812251 -0.16997007 0.1539215 0.30693352 0.07671314 0.44354632 0.46866187 -0.30482084 -0.41153908 0.091650955 0.43742487 -0.5245595 -0.15336114 0.62007046 0.935245 0.060452245 0.3225982 0.2624574 0.30389035 -0.48721015 -0.103778794 0.39112356 0.65282214 0.3937206 -0.3572447 1.0682656 0.14231326 0.17397748 0.95692736 0.019518415 0.48984337 0.5765127 0.11594274 -0.46284735 -0.93525404 -0.214676 0.7710804 -0.022429531
YERLƏRİNİN -1.9052764 2.0159814 1.0685704 -0.69504017 0.612117 0.61728823 1.9305905 1.315194 -0.34390107 1.343482 0.17357731 -1.3379331 -0.12827536 -1.2779467 0.82149434 -1.6919392 -0.38606507 -0.30057818 0.72160596 -1.1224631 -0.47382522 0.7545607 0.47494698 -1.0989027 0.19927084 -0.20644315 -2.247142 0.11084527 1.1672754 -0.42552263 1.1920395 -1.64782 0.22028807 0.6801087 0.58898026 0.78227246 -2.343982 -0.38545898 0.7884148 -0.25588393 -1.5879042 -1.1762763 -2.5044973 0.697487 -0.39401922 -1.210974 -1.1290935 1.8074232 -0.055012338 1.6599655 -0.0431045 -0.5848902 1.353638 -0.8777896 -1.6821997 0.70136404 0.40062115 -1.124272 0.77791 -0.24127449 0.004495967 -0.18642472 0.5071748 -0.29222196 0.29072627 0.53991324 0.12238465 0.794029 0.78324556 -0.5353017 -0.73830324 0.13781102 0.7939424 -0.91946006 -0.20946044 1.0912256 1.6681557 0.12821831 0.5544374 0.5216373 0.50713986 -0.85420126 -0.21936867 0.6724569 1.1275918 0.6605563 -0.6470573 1.8451359 0.29222003 0.28260997 1.7445308 0.017282506 0.9390916 0.97118104 0.23888862 -0.753853 -1.6280086 -0.42253754 1.3690062 -0.033583365
TİKİLİŞİNDƏ -1.4191025 1.5069762 0.7826653 -0.5109778 0.46192658 0.46857452 1.429426 0.97987974 -0.25019 0.9974393 0.1288816 -1.0004966 -0.088705234 -0.9442446 0.6137823 -1.2608703 -0.2853345 -0.229514 0.52777815 -0.826623 -0.36116743 0.56639946 0.35219994 -0.8153633 0.14371558 -0.15095419 -1.673443 0.07599101 0.8719105 -0.32234728 0.886599 -1.2207793 0.1691823 0.5111686 0.43694592 0.5824795 -1.738942 -0.2848533 0.58729064 -0.18332957 -1.1816711 -0.87340784 -1.8663297 0.5194503 -0.30023646 -0.8988145 -0.8395663 1.3390322 -0.039621715 1.2264069 -0.031508967 -0.4326749 1.0008454 -0.6526205 -1.256087 0.52123666 0.29625562 -0.83910817 0.5882542 -0.1775738 0.0049196123 -0.13255551 0.38371566 -0.2140061 0.21240611 0.4077983 0.099427044 0.5939288 0.59192055 -0.40632254 -0.5486583 0.10448144 0.59521675 -0.6819338 -0.16105215 0.80913323 1.2418528 0.090528555 0.40919715 0.3846584 0.37226844 -0.63649094 -0.16415705 0.49504012 0.834111 0.49063167 -0.47580096 1.3812665 0.21974361 0.21408828 1.2923908 0.0045330953 0.69232494 0.7225757 0.17333536 -0.55997795 -1.2152588 -0.31749326 1.0171515 -0.032292824
ƏSAS -1.2492893 1.3506373 0.7020916 -0.46489012 0.41225508 0.39638478 1.2990525 0.87395614 -0.2168348 0.8992655 0.117429204 -0.90879923 -0.09554619 -0.8297269 0.53853506 -1.1414765 -0.2611396 -0.20004345 0.48546344 -0.74350953 -0.3376085 0.49365485 0.3038317 -0.7054257 0.14628479 -0.11902216 -1.4889524 0.0856057 0.76112705 -0.26909345 0.7661674 -1.1037323 0.122290306 0.46476567 0.3848734 0.51194847 -1.5387709 -0.26306155 0.52837986 -0.19565219 -1.0391988 -0.7897306 -1.6597173 0.46737063 -0.2519089 -0.8076494 -0.7584887 1.2045606 -0.013665791 1.0883429 -0.031592865 -0.37476146 0.87916887 -0.5581667 -1.1366107 0.48356077 0.27731726 -0.7262523 0.53650624 -0.16321756 -0.014752267 -0.12377345 0.32518923 -0.21419626 0.18098426 0.36049032 0.07167954 0.53292775 0.53907084 -0.3438675 -0.48477423 0.105583906 0.5158505 -0.6132033 -0.16293724 0.7208437 1.0989851 0.07120884 0.36476025 0.31445342 0.35987586 -0.57456046 -0.1393272 0.42810982 0.7463038 0.44602334 -0.4320087 1.2293103 0.18017954 0.19946289 1.1335441 0.008102679 0.6109766 0.6630319 0.16198453 -0.5436386 -1.0892962 -0.25726816 0.89310575 -0.01851187
BİNA -1.3467045 1.3880588 0.74096715 -0.46979803 0.4212933 0.44624713 1.3187649 0.9187533 -0.2645426 0.9237938 0.11959195 -0.89988583 -0.054512784 -0.9236426 0.58370394 -1.1753343 -0.24803446 -0.20142493 0.4916782 -0.76684695 -0.32077613 0.54690945 0.33524945 -0.8018521 0.11921405 -0.1562718 -1.5746526 0.07250763 0.8304021 -0.32600752 0.8660504 -1.1381392 0.19486347 0.46406698 0.41656473 0.53919625 -1.6553111 -0.26747778 0.5317997 -0.1453694 -1.1252118 -0.8148057 -1.7616054 0.48792934 -0.293924 -0.82962376 -0.77009606 1.2413933 -0.06977829 1.1799811 -0.01488687 -0.423319 0.96199965 -0.64631844 -1.1549813 0.487601 0.2807543 -0.8156922 0.5273727 -0.1722195 0.012811607 -0.12653004 0.38241306 -0.18525065 0.21364246 0.39172247 0.10453195 0.55953366 0.5277028 -0.39328527 -0.5182544 0.07508221 0.5677518 -0.63480246 -0.11417317 0.7702359 1.1858479 0.09188349 0.37728533 0.4111935 0.33809677 -0.589522 -0.17063263 0.46262568 0.77966446 0.44606018 -0.44155538 1.2969491 0.23519708 0.18894228 1.2489507 -0.0049598357 0.68330693 0.6514743 0.16656797 -0.47814104 -1.1331189 -0.32907602 0.9725951 -0.025182579
VƏ -1.1367389 1.1947632 0.63095814 -0.41773477 0.36755404 0.38047308 1.140253 0.7879577 -0.20783782 0.796276 0.104977325 -0.7958484 -0.062672846 -0.76830167 0.49178776 -1.0043973 -0.2294654 -0.17277583 0.43822092 -0.6679104 -0.28511482 0.44597378 0.28878862 -0.67132795 0.11081618 -0.13300346 -1.3500688 0.058626715 0.7009467 -0.25413203 0.7236117 -0.9833803 0.14488526 0.40602973 0.36166802 0.47188506 -1.3951342 -0.22761747 0.4716557 -0.13939251 -0.96476763 -0.6993925 -1.4900186 0.4245284 -0.24836282 -0.71457636 -0.66387546 1.0674487 -0.03611896 0.9930553 -0.029080784 -0.35168687 0.81573576 -0.5326727 -0.9961905 0.41518125 0.22790685 -0.6735242 0.46516663 -0.13639025 -0.0021173186 -0.101547115 0.30956033 -0.16335233 0.17849228 0.33219555 0.083069906 0.4791729 0.46439144 -0.3255773 -0.44321674 0.072076924 0.48320106 -0.5419404 -0.13211553 0.6515253 1.0011495 0.07559747 0.32691482 0.3210075 0.29698348 -0.5124546 -0.13116983 0.40756232 0.67931396 0.3956837 -0.3828672 1.1045074 0.17497097 0.16324008 1.0467775 0.009095094 0.55969584 0.57054025 0.13055786 -0.43330497 -0.9746938 -0.26752812 0.8250775 -0.017341107
TİPLƏRİ -1.4394914 1.5045152 0.79759735 -0.5134875 0.45814696 0.47517747 1.4368753 0.98802686 -0.27219838 1.0015048 0.1323912 -0.9818203 -0.07264538 -0.97177833 0.62950635 -1.2724627 -0.28074262 -0.22408889 0.5373622 -0.8395052 -0.34834775 0.5808005 0.36614645 -0.8503334 0.12948592 -0.16830021 -1.7009759 0.084919386 0.8832826 -0.3410903 0.9240865 -1.2352946 0.19362845 0.49665558 0.44998786 0.5841528 -1.7803861 -0.28294727 0.5806992 -0.17087935 -1.1989925 -0.8763531 -1.8869973 0.52350694 -0.3090739 -0.89996266 -0.82948166 1.3436862 -0.06602018 1.2511035 -0.026548343 -0.45107108 1.0273339 -0.68211365 -1.2553439 0.5203427 0.29183972 -0.86137396 0.5771918 -0.18470353 0.010945604 -0.1417471 0.40114343 -0.20353673 0.22211765 0.41510504 0.10252576 0.5996262 0.5721951 -0.41526225 -0.5583406 0.08492862 0.61176205 -0.6807586 -0.12639934 0.8189157 1.2624276 0.10036182 0.4108899 0.41872892 0.3604643 -0.63711476 -0.17698577 0.5025424 0.84385073 0.48632336 -0.48496735 1.3850998 0.24023505 0.19437923 1.339458 -0.004319538 0.72932297 0.71322703 0.18325433 -0.52924216 -1.2186583 -0.3431272 1.0354098 -0.032698717
ŞƏHƏRLƏRİN -1.7878697 1.8616642 0.99583894 -0.6430564 0.5708855 0.57593095 1.7972218 1.223948 -0.3496312 1.2588252 0.17031696 -1.2215539 -0.09098814 -1.2162508 0.7772094 -1.5904651 -0.3458763 -0.27016935 0.683995 -1.048017 -0.43075952 0.7115727 0.46149653 -1.0568072 0.1627821 -0.21264711 -2.1099076 0.12176086 1.088224 -0.41373208 1.1352392 -1.5444292 0.237496 0.62234294 0.5613965 0.72453916 -2.2181492 -0.3603354 0.72684103 -0.21053398 -1.493559 -1.1011893 -2.341186 0.65484244 -0.3799458 -1.1145644 -1.028035 1.678532 -0.070101045 1.5691592 -0.029310975 -0.56294024 1.2902429 -0.85247433 -1.5711205 0.65611506 0.36383697 -1.0626892 0.70361555 -0.24373353 -0.010003749 -0.18225802 0.48828217 -0.26115513 0.28033885 0.50894284 0.10686073 0.7511709 0.7130149 -0.50523704 -0.6932026 0.11051399 0.75761014 -0.84676224 -0.16618806 1.0175681 1.5713651 0.12765539 0.5185198 0.52508247 0.45954964 -0.7931305 -0.2254761 0.62011033 1.0429482 0.59886277 -0.60930073 1.713424 0.2884595 0.24678804 1.6677157 -0.0035889102 0.9177716 0.8813799 0.23939599 -0.6658345 -1.5241314 -0.42295954 1.282748 -0.023547037
onların -0.44254723 -0.11862305 0.12433558 0.07827386 -0.008320351 0.2954102 -0.06536042 0.12608105 -0.47560835 0.017250082 0.057433274 0.4405551 0.51994425 -0.66856873 0.30167085 -0.17198157 0.22001658 0.13847141 0.104651645 -0.09746433 0.23203178 0.3285644 0.3217637 -0.80436784 -0.39847386 -0.38063762 -0.48342973 0.013435057 0.30268165 -0.4702525 0.7634352 -0.16697118 0.7224904 -0.25103334 0.2311317 0.054295424 -0.77204263 0.05206645 -0.11587908 0.48853895 -0.48124647 -0.049614724 -0.3816768 0.12439577 -0.3156223 0.08446329 0.27983972 -0.012555113 -0.54732555 0.5638357 0.16593094 -0.38301554 0.59780693 -0.6980935 0.08434325 -0.04612131 -0.12599279 -0.555814 -0.27119613 -0.1261068 0.06083999 -0.072494976 0.42492476 0.33862966 0.27756757 0.2223802 0.20046124 0.18127571 -0.33291188 -0.26847455 -0.19428283 -0.37606904 0.39660552 0.052240547 0.60074884 0.17965163 0.52179974 0.19258161 0.016621606 0.8296387 -0.3125955 0.012652885 -0.3316174 0.14284138 0.067661315 -0.1582765 -0.049826037 0.13584074 0.47221673 -0.3101872 0.9334711 -0.21082872 0.7188117 -0.3133619 0.1107769 0.80202776 -0.15644158 -0.6523011 0.46638203 -0.018873408
inşa -0.5137814 0.006504267 0.17790426 0.025914121 0.034194067 0.30195877 0.05799139 0.18586613 -0.4440317 0.107032575 0.06699917 0.3225468 0.4639721 -0.67909634 0.31939024 -0.2569721 0.1769417 0.11448569 0.14212927 -0.1544869 0.17743498 0.3400165 0.3187664 -0.7965393 -0.3452137 -0.35782817 -0.56841695 0.022113621 0.34158912 -0.44536167 0.7567151 -0.24091595 0.66430473 -0.1852503 0.23722236 0.09198005 -0.8348328 0.019508205 -0.06580503 0.4344464 -0.53269094 -0.11961647 -0.4928306 0.1566229 -0.30567637 0.0036851214 0.19657516 0.09614924 -0.49512178 0.61003727 0.15103483 -0.38711566 0.62544924 -0.6860243 -0.030485056 -0.001429733 -0.08667099 -0.566972 -0.19373618 -0.13064772 0.05482493 -0.080832556 0.4126299 0.28580523 0.26531985 0.23632161 0.19423628 0.21320747 -0.26065814 -0.2782213 -0.2217994 -0.33082926 0.40818408 -0.0033646347 0.53609544 0.22764581 0.5789107 0.17925617 0.055830657 0.7820387 -0.24862064 -0.04255514 -0.3199107 0.16262412 0.13449332 -0.105479434 -0.08425555 0.23202102 0.44744414 -0.27017227 0.95179844 -0.19178447 0.71027815 -0.22928692 0.123564206 0.672938 -0.24220046 -0.6199518 0.49446157 -0.018449599
əsrin -0.59304976 0.16860016 0.25521427 -0.028381156 0.08484947 0.2938193 0.25340006 0.26327723 -0.4428639 0.22500509 0.09302085 0.1624964 0.40257323 -0.7092412 0.35025176 -0.41686705 0.11712926 0.0694378 0.2145779 -0.24992014 0.10353955 0.34181753 0.32487348 -0.7852867 -0.284197 -0.32489288 -0.69467014 0.06987844 0.37029964 -0.43649846 0.77164197 -0.35596243 0.6154794 -0.10183008 0.2690144 0.12324155 -0.94447213 -0.020022748 0.0014198138 0.34001485 -0.60293204 -0.23269509 -0.6512017 0.22475949 -0.31147078 -0.06330797 0.097732075 0.22933395 -0.421664 0.68715584 0.13320088 -0.39158055 0.69091547 -0.6822834 -0.2046612 0.09007279 -0.044434503 -0.58346826 -0.11860696 -0.16875254 0.0006676614 -0.11256853 0.39222705 0.21150704 0.24923515 0.26253352 0.15342894 0.27377072 -0.14189042 -0.2805632 -0.25244132 -0.27984354 0.41823703 -0.07590406 0.44314447 0.28786838 0.63422513 0.15731667 0.11453228 0.72486734 -0.16156913 -0.11657357 -0.3164314 0.16517954 0.1969868 -0.045962457 -0.13608196 0.35145733 0.42148948 -0.1959209 0.98978657 -0.17326252 0.722644 -0.1113516 0.17984846 0.49442726 -0.34825006 -0.56889075 0.52924126 0.006448853
mühəndis -0.53197485 0.08638113 0.20039877 -0.0064180773 0.06262481 0.29318056 0.13091862 0.22243111 -0.41322148 0.1520762 0.059190046 0.23342322 0.39910823 -0.6511974 0.32463452 -0.29492712 0.14620374 0.086703576 0.15687099 -0.17901157 0.14564034 0.33621868 0.31332603 -0.74699914 -0.30388168 -0.322341 -0.59787065 0.016493203 0.3563594 -0.40950093 0.7199742 -0.27631348 0.5858107 -0.13712324 0.22923465 0.112123415 -0.8281786 0.0015718495 -0.020080062 0.3784861 -0.52351743 -0.15033567 -0.5401446 0.1610986 -0.29140294 -0.054835986 0.11691785 0.16242819 -0.4416598 0.5979674 0.12693864 -0.35318318 0.59109855 -0.63009477 -0.088955194 0.02467797 -0.05233882 -0.53978467 -0.13840385 -0.11714413 0.04165862 -0.06373769 0.388896 0.25385225 0.24857855 0.22390752 0.17837454 0.22486709 -0.20188473 -0.25905088 -0.22161488 -0.28890032 0.39802316 -0.042266898 0.46744755 0.24787399 0.57650006 0.15698 0.06983366 0.7166073 -0.20069687 -0.073152125 -0.28836125 0.18253107 0.17025779 -0.06725046 -0.10314137 0.29116794 0.39710724 -0.22532053 0.9144917 -0.17567874 0.65373206 -0.16408005 0.09987726 0.57652336 -0.28305233 -0.5627354 0.49940678 -0.030317126
ya -0.9053015 0.15864238 0.33285594 -0.0065813595 0.09693527 0.4900234 0.21517585 0.37894836 -0.68811846 0.24598227 0.11166829 0.38772216 0.6769429 -1.1007912 0.52938265 -0.49435076 0.23769274 0.14714263 0.25559786 -0.3073706 0.2348248 0.55945474 0.50543225 -1.2569027 -0.50106674 -0.5438682 -1.0072323 0.033049528 0.5946457 -0.69159186 1.2133074 -0.47742033 0.9976473 -0.23070346 0.3943172 0.2014625 -1.40668 0.00047458758 -0.03571583 0.6278001 -0.90763855 -0.25710785 -0.91023976 0.27528927 -0.4813276 -0.09063002 0.19918443 0.27107626 -0.736384 1.0203011 0.21671115 -0.6093928 1.0112519 -1.0723921 -0.15773414 0.044655405 -0.096894346 -0.91620153 -0.22769633 -0.20749041 0.0866697 -0.13215074 0.65490097 0.4137343 0.4279878 0.38875 0.30500078 0.37250823 -0.33301398 -0.45400885 -0.3808679 -0.48674172 0.6614386 -0.07439957 0.77641356 0.41494378 0.98103106 0.27960965 0.11257694 1.2022531 -0.34012184 -0.121785216 -0.4932732 0.30799633 0.2781989 -0.115936324 -0.16533363 0.47923967 0.6772252 -0.38442641 1.5383731 -0.28470492 1.123011 -0.26868874 0.17823298 0.95399946 -0.47500995 -0.9512542 0.8357933 -0.036783766
ən -0.7819004 0.042054016 0.27608293 0.029667258 0.0638683 0.4494996 0.124244444 0.29845023 -0.6670911 0.17878142 0.099640705 0.44626603 0.67107385 -1.0125811 0.4843287 -0.41500106 0.25770375 0.15848872 0.21634433 -0.24962714 0.25803643 0.50606287 0.47436532 -1.175985 -0.5064399 -0.5194175 -0.8666937 0.02957797 0.5205595 -0.6655629 1.1313804 -0.37729555 0.9741264 -0.25975564 0.35948667 0.1432863 -1.2617962 0.023459354 -0.07786582 0.6235432 -0.79242057 -0.20037754 -0.76924646 0.24027787 -0.46153706 -0.013350512 0.25631914 0.16740043 -0.7257024 0.9123899 0.21591088 -0.56899613 0.9288478 -1.0088118 -0.073561065 0.015104229 -0.1114463 -0.8402404 -0.2730238 -0.20191385 0.066610105 -0.11811461 0.61406124 0.41748992 0.38447407 0.34894624 0.27318057 0.31728187 -0.35383555 -0.3990074 -0.32550624 -0.48062316 0.60450464 -0.026781008 0.77017784 0.35177043 0.8642203 0.25944787 0.087905444 1.144659 -0.35203248 -0.0729099 -0.47277835 0.25259116 0.20131414 -0.14103396 -0.13295397 0.3758174 0.65483344 -0.38149735 1.4222981 -0.2812153 1.0527071 -0.31064108 0.17627156 0.96830666 -0.3786207 -0.9024228 0.7488184 -0.030149737
malik -0.6070044 0.061189726 0.2107177 0.014058611 0.04956414 0.3424882 0.10339657 0.2374875 -0.49059305 0.14078256 0.071062684 0.31288645 0.49292988 -0.75625163 0.36231676 -0.31357974 0.17886963 0.1132477 0.16233748 -0.19586119 0.18661883 0.38868952 0.3571129 -0.88454354 -0.3687969 -0.3892467 -0.6734199 0.019504761 0.40455317 -0.49051932 0.8449972 -0.30234522 0.7192438 -0.18249105 0.27097988 0.12228775 -0.9590396 0.013092387 -0.048203655 0.46428928 -0.6081116 -0.1494023 -0.5941171 0.17857277 -0.34512994 -0.033216737 0.17122628 0.14806108 -0.5359342 0.69234127 0.15375236 -0.42783898 0.6975926 -0.75547427 -0.06359024 0.013170944 -0.083101004 -0.63708055 -0.18875271 -0.13841026 0.061501205 -0.083638 0.45515466 0.30898052 0.29959884 0.2634475 0.2101412 0.24489786 -0.26118964 -0.3140352 -0.25477934 -0.3551838 0.4629425 -0.033953197 0.5727508 0.27694163 0.665549 0.20290609 0.06321739 0.85549986 -0.25499424 -0.065682255 -0.35051844 0.20685844 0.1685868 -0.09847728 -0.104759626 0.29996753 0.48408824 -0.28360456 1.0720066 -0.20932098 0.784152 -0.22231168 0.12101799 0.71333456 -0.3021797 -0.673227 0.57075644 -0.023945123
mərkəzi -0.5479384 0.041193157 0.1912288 0.019599605 0.0423835 0.31501672 0.08433659 0.2149037 -0.45221862 0.11945446 0.06403663 0.303906 0.45811728 -0.7029336 0.33430004 -0.2786597 0.17446133 0.10763965 0.14693594 -0.17463128 0.17715448 0.35144022 0.3294478 -0.814105 -0.34604713 -0.36135507 -0.6065324 0.014603275 0.3678446 -0.45379516 0.7776901 -0.26687133 0.66999847 -0.17704426 0.24923164 0.107008845 -0.8791581 0.013900491 -0.05034195 0.43320295 -0.55496234 -0.13244098 -0.53512174 0.16383845 -0.31488708 -0.017761922 0.1703582 0.12293236 -0.4970151 0.62890565 0.14576271 -0.39437458 0.63459444 -0.69617426 -0.045717075 0.005456301 -0.078077145 -0.58094174 -0.18193914 -0.13041387 0.061154198 -0.080197915 0.42358217 0.28986403 0.2759885 0.2450969 0.1966319 0.2265881 -0.25062472 -0.28950447 -0.23090845 -0.32933187 0.42800972 -0.024845026 0.53261894 0.24603839 0.6042008 0.18652199 0.057528365 0.79530996 -0.24523896 -0.05705541 -0.32583514 0.18735796 0.14893039 -0.095939755 -0.09145372 0.26645017 0.449938 -0.26357877 0.9845377 -0.19347264 0.7244658 -0.21623655 0.114411995 0.6679298 -0.26803523 -0.627068 0.52482754 -0.024409743
baş -0.6122938 0.116450444 0.22464335 -0.0038092793 0.068948075 0.32510567 0.1491048 0.25764447 -0.45381743 0.16631648 0.079067886 0.24627927 0.44880885 -0.73351705 0.35575524 -0.3382603 0.1558731 0.09553654 0.17349741 -0.20820472 0.15503268 0.37708852 0.34410033 -0.8381944 -0.32933766 -0.36289895 -0.6818484 0.02066695 0.40343302 -0.46153325 0.8060771 -0.32558328 0.66183615 -0.14743562 0.26353922 0.13510334 -0.9421958 -0.0055366894 -0.024972538 0.41335458 -0.60454315 -0.1752431 -0.6129196 0.18575709 -0.32515174 -0.06837488 0.12640713 0.18897162 -0.48758882 0.6764742 0.1443448 -0.4057471 0.6754488 -0.7157641 -0.113798045 0.028218055 -0.05942794 -0.61483824 -0.14406213 -0.1315982 0.057029866 -0.07783254 0.44147706 0.27123055 0.2860364 0.26041168 0.19516098 0.24979219 -0.21896389 -0.30057317 -0.25661796 -0.3166272 0.44526124 -0.058488388 0.51281464 0.28406513 0.6550845 0.18624559 0.074488245 0.79657245 -0.21619189 -0.08401584 -0.3294599 0.20472912 0.18937324 -0.07638791 -0.11548029 0.3256653 0.45347825 -0.2525971 1.0293654 -0.18584529 0.7431072 -0.17587496 0.11506055 0.6242515 -0.32737976 -0.62892205 0.5639921 -0.024380062
". -0.48394272 0.16077471 0.19042945 -0.03193501 0.06613749 0.24584517 0.17710103 0.22973086 -0.3241518 0.16659461 0.053334773 0.11061132 0.29699448 -0.54771954 0.28121975 -0.2935386 0.08751797 0.054486725 0.14763187 -0.18478404 0.086978115 0.28296152 0.25198933 -0.606073 -0.21310629 -0.251613 -0.5521976 0.01428881 0.32107243 -0.32695705 0.5923833 -0.2839076 0.44982457 -0.074283175 0.20281199 0.124987364 -0.73416984 -0.017293995 0.022813631 0.27298403 -0.4681084 -0.16255665 -0.5172524 0.15010574 -0.2324905 -0.09729562 0.04080509 0.20082918 -0.32491857 0.5177571 0.09104379 -0.29833263 0.5090216 -0.51247525 -0.14370446 0.049274664 -0.019025724 -0.45569038 -0.063141406 -0.097408585 0.03736644 -0.054543417 0.31945494 0.17873695 0.20204207 0.19102025 0.14009993 0.19467564 -0.11167965 -0.2186613 -0.20389278 -0.21498875 0.33783123 -0.071388416 0.3370549 0.23255546 0.5090824 0.12635474 0.076735735 0.558808 -0.12582095 -0.09009843 -0.2282163 0.16779529 0.17462675 -0.030002309 -0.100362405 0.30004996 0.31665286 -0.16079095 0.7597188 -0.1260492 0.53764397 -0.08422595 0.07875883 0.3947361 -0.28131396 -0.43716258 0.43401143 -0.029233705
daxil -0.4918242 0.08885094 0.18196608 -0.00701108 0.05418004 0.26358506 0.113630556 0.20745574 -0.37201068 0.13657904 0.05776525 0.20388503 0.3612889 -0.594444 0.28904465 -0.2683751 0.12315014 0.07951819 0.13641624 -0.17138737 0.12638648 0.30550843 0.27908596 -0.67586195 -0.26953232 -0.29470724 -0.55388 0.017146815 0.32762876 -0.37410194 0.65345323 -0.26229012 0.5323331 -0.11792572 0.21558724 0.110409655 -0.7653638 -0.0027162074 -0.017499791 0.34135193 -0.4874391 -0.13943902 -0.4963235 0.14644848 -0.26162967 -0.052786157 0.10121862 0.14977908 -0.3946498 0.5536106 0.11363558 -0.33079907 0.54552925 -0.5769095 -0.08841502 0.023336882 -0.0486288 -0.49840286 -0.1220399 -0.10453713 0.04625069 -0.06255641 0.35122395 0.22599612 0.22762376 0.20964138 0.15736505 0.19950289 -0.17910036 -0.24087353 -0.20539919 -0.26095313 0.36246043 -0.044532776 0.42025605 0.22905289 0.5354917 0.15110205 0.06356618 0.64590293 -0.17884128 -0.06506079 -0.26479492 0.16817239 0.15157306 -0.06000968 -0.09334084 0.26582643 0.36247286 -0.20405 0.83069307 -0.14852367 0.6039835 -0.14062017 0.09161912 0.5102408 -0.2611218 -0.50980633 0.45046002 -0.022557782
həll -0.49748805 0.033402238 0.17293698 0.01815204 0.03882704 0.28686965 0.066729024 0.1898548 -0.4140395 0.11201665 0.063515484 0.28246486 0.42053795 -0.63940936 0.30459663 -0.2510961 0.15649217 0.100064 0.1340467 -0.15305038 0.16419633 0.32832018 0.30757296 -0.74879116 -0.32038224 -0.3318288 -0.5554421 0.011354143 0.3316632 -0.41917408 0.71089923 -0.24204358 0.6081919 -0.16696101 0.22634609 0.09178741 -0.7954257 0.013685922 -0.048980888 0.4007862 -0.50424063 -0.12115511 -0.48425457 0.1471408 -0.28766242 -0.012524778 0.16368543 0.109182924 -0.45712602 0.57560617 0.13349018 -0.35729176 0.5813966 -0.6366269 -0.0377247 0.0017903557 -0.07467295 -0.53137815 -0.17221817 -0.11451855 0.047202453 -0.068255916 0.38596427 0.26857024 0.2519727 0.22121245 0.17667307 0.2037267 -0.2342719 -0.26031277 -0.21164887 -0.3126915 0.3838456 -0.01799903 0.49272254 0.22312914 0.5541708 0.16955456 0.055365656 0.72810847 -0.22258256 -0.04639453 -0.29687414 0.1644915 0.137207 -0.087966405 -0.08103165 0.23971604 0.40779912 -0.24671951 0.8977281 -0.17511937 0.66097367 -0.20367582 0.10600528 0.6159979 -0.24160859 -0.5724927 0.47069022 -0.023270758
edən -0.60876757 -0.024056097 0.19827321 0.051838048 0.030721013 0.3603949 0.032163978 0.22226633 -0.55738604 0.09747402 0.068249136 0.4342695 0.58637154 -0.83439064 0.39460284 -0.28734085 0.23588015 0.15034838 0.16309422 -0.1729834 0.24436706 0.41630644 0.3976911 -0.9731473 -0.44527468 -0.4352299 -0.67254704 0.013070314 0.41810307 -0.5542195 0.92808855 -0.26474518 0.82198465 -0.24563423 0.29150188 0.10120892 -1.0060561 0.031046527 -0.0841203 0.55536866 -0.62705076 -0.120540924 -0.5762753 0.17327894 -0.3791677 0.02592826 0.25477466 0.08652037 -0.62065834 0.71641916 0.19068442 -0.46961161 0.73994815 -0.8325368 0.0061710975 -0.019573202 -0.10632841 -0.67892236 -0.25701246 -0.15851992 0.063361615 -0.0837022 0.5132214 0.38243786 0.3325188 0.28105962 0.23841585 0.24705617 -0.34014052 -0.3240347 -0.25609085 -0.42711002 0.50956285 0.0070871827 0.6735216 0.2592532 0.6903132 0.22037326 0.047451634 0.97493064 -0.3306285 -0.03432063 -0.388745 0.20737831 0.14013451 -0.1590449 -0.087957256 0.26635915 0.5501326 -0.34141737 1.1580281 -0.23526603 0.86712074 -0.31270334 0.12716162 0.8755744 -0.26276487 -0.7691619 0.60259676 -0.041987088
belə -0.494981 0.0070018596 0.16031793 0.026875207 0.031866316 0.28641227 0.043214686 0.184151 -0.42333302 0.094733186 0.0618676 0.30912882 0.43959653 -0.64991844 0.3107293 -0.23726018 0.17178585 0.11233211 0.13112049 -0.14829375 0.17814913 0.3284419 0.31070963 -0.759222 -0.33200806 -0.34360823 -0.55277234 0.014115267 0.32778576 -0.4292805 0.7231603 -0.23341759 0.62907207 -0.17962243 0.22817741 0.08808478 -0.7986649 0.01349846 -0.06084228 0.41518912 -0.50222474 -0.10315403 -0.470367 0.14267865 -0.29228052 0.0010651691 0.18673134 0.09144728 -0.47185418 0.57409394 0.13389257 -0.36316 0.58739483 -0.6493976 -0.016551698 -0.007970037 -0.08174701 -0.53731495 -0.17870322 -0.11536264 0.060690843 -0.07250049 0.39512825 0.2835763 0.26645568 0.22487618 0.19077037 0.20307861 -0.2516665 -0.26429048 -0.21568201 -0.32263455 0.3956315 -0.012429122 0.51641405 0.22046682 0.562906 0.17569079 0.044940628 0.7556433 -0.24325699 -0.03793154 -0.30866036 0.16663465 0.12799112 -0.10541972 -0.075862125 0.22162761 0.42122105 -0.2627149 0.911696 -0.18143421 0.67430425 -0.22011879 0.10501027 0.65332633 -0.23064944 -0.5880681 0.47461933 -0.020689044
həm -0.5371706 0.080826975 0.19642831 6.560171e-05 0.05002167 0.29381907 0.114310645 0.21758863 -0.4167114 0.14320804 0.06428608 0.24249086 0.40024024 -0.6581629 0.32235342 -0.28826693 0.14709194 0.090301745 0.1519659 -0.17324738 0.15879185 0.34198445 0.31423944 -0.7629593 -0.30942598 -0.33426142 -0.60397017 0.014117365 0.3547266 -0.42338467 0.7296186 -0.2765916 0.60307854 -0.15081269 0.23651882 0.11018111 -0.83818877 1.843488e-05 -0.027023137 0.39217097 -0.5313598 -0.14273784 -0.54317105 0.1532889 -0.28892395 -0.04248906 0.13568461 0.1550394 -0.4490798 0.6046263 0.1269596 -0.36448503 0.6018472 -0.6505166 -0.071800485 0.015676465 -0.059752315 -0.54801184 -0.14827019 -0.11893655 0.045855902 -0.07377131 0.39688092 0.26032618 0.2552261 0.22743554 0.18134142 0.22209482 -0.2100734 -0.267275 -0.22209458 -0.30380476 0.40038738 -0.039508335 0.48326927 0.2472064 0.590635 0.16400772 0.06423952 0.7385926 -0.20887053 -0.06311269 -0.298825 0.18641688 0.16372553 -0.074061826 -0.091975875 0.28103155 0.41212767 -0.23465106 0.9299595 -0.17029741 0.6737147 -0.17600976 0.101421356 0.590052 -0.28179187 -0.5747929 0.49841374 -0.025573129
edir. -0.6298567 0.10307862 0.23017736 0.0071914764 0.06710035 0.32996586 0.1357666 0.2802405 -0.5001292 0.15167306 0.06536586 0.3055395 0.50621593 -0.796042 0.40119272 -0.3361002 0.1811464 0.11711715 0.18547015 -0.2130695 0.18304951 0.40678757 0.38269 -0.9039371 -0.37053248 -0.38209727 -0.7209278 0.018606422 0.4395838 -0.4991541 0.86357725 -0.31865275 0.71050376 -0.17862223 0.28342316 0.13307619 -1.0066354 -0.0058651897 -0.019679992 0.48352638 -0.6320919 -0.16086589 -0.64190465 0.18145005 -0.34492993 -0.04982684 0.14508986 0.17910133 -0.53332394 0.7022503 0.16430144 -0.4399729 0.70515275 -0.76569927 -0.09027019 0.018867334 -0.061217736 -0.64613396 -0.17417687 -0.15377675 0.038954042 -0.06802151 0.47926506 0.3240703 0.31734994 0.2710959 0.21725897 0.2635454 -0.24768464 -0.30687654 -0.2669073 -0.3755278 0.5033404 -0.04762353 0.56834507 0.28234586 0.694726 0.19578479 0.061154954 0.8789346 -0.25901031 -0.07615592 -0.34019047 0.22826646 0.18679528 -0.120803855 -0.11246477 0.345529 0.49052235 -0.27928412 1.0949903 -0.20163937 0.7971949 -0.22790076 0.102341875 0.728076 -0.31140846 -0.6908937 0.5976578 -0.052855298
XX -0.7328132 0.6709488 0.40153003 -0.23542532 0.21358564 0.23425221 0.7003806 0.478672 -0.25444365 0.5250098 0.09962635 -0.3862264 0.08290937 -0.58884907 0.359888 -0.67891294 -0.0933585 -0.07539208 0.3168332 -0.43685904 -0.1509742 0.30997187 0.2447035 -0.5434015 -0.007108295 -0.15055847 -0.8973077 0.11381141 0.42711726 -0.2400799 0.5617172 -0.62566847 0.23144011 0.18701741 0.27108476 0.26481646 -0.9889663 -0.15610997 0.23696554 -0.0003377476 -0.6569824 -0.44038078 -0.95285565 0.2976716 -0.2040261 -0.3743293 -0.30710238 0.62836426 -0.106349304 0.70906246 0.026856469 -0.29621515 0.61790705 -0.46907958 -0.6299471 0.26774022 0.11546915 -0.48672956 0.20345354 -0.15536965 -0.061736178 -0.114173755 0.24560478 -0.07175606 0.15954062 0.24656244 0.03942116 0.33775204 0.2163542 -0.23255359 -0.29474777 -0.027792182 0.3586032 -0.30908734 0.045509487 0.41960913 0.6972582 0.06842335 0.20925084 0.34817266 0.1349869 -0.31297287 -0.16683808 0.21262754 0.4052814 0.17755647 -0.26594493 0.66881657 0.19181316 0.033713482 0.8163171 -0.05790693 0.5225723 0.27728727 0.16946281 -0.1274528 -0.6126977 -0.278856 0.5370228 0.016975481
nə -0.6415083 0.0681997 0.22947918 0.008615716 0.053115673 0.36163396 0.109458365 0.25036788 -0.518969 0.15059683 0.07719366 0.33320946 0.51785785 -0.80123967 0.38946584 -0.33337975 0.19710787 0.11889088 0.17363979 -0.20118211 0.19508536 0.41269845 0.3898711 -0.93646324 -0.3854734 -0.41888738 -0.721091 0.015994977 0.42311388 -0.5236062 0.8877225 -0.3201701 0.7504028 -0.18688655 0.28870654 0.12681487 -1.0106875 0.0054680486 -0.048599903 0.4886951 -0.63921744 -0.15618788 -0.63098854 0.18693154 -0.35565567 -0.035441477 0.19273463 0.15881278 -0.56534827 0.7226632 0.15859975 -0.44774434 0.7339472 -0.79656994 -0.068660244 0.004240954 -0.08887686 -0.6675525 -0.1941323 -0.14115088 0.060266316 -0.0922944 0.48629108 0.33154956 0.32416543 0.28239998 0.22540231 0.26107815 -0.27439258 -0.33125234 -0.2754355 -0.37718818 0.49055293 -0.042099293 0.60777205 0.29318386 0.711182 0.2048754 0.07323132 0.9094415 -0.27961853 -0.06301832 -0.37094992 0.21904102 0.18259731 -0.11002864 -0.10451217 0.32182074 0.51428276 -0.29841155 1.1277896 -0.21462798 0.8247981 -0.23116636 0.124889456 0.7563879 -0.32415944 -0.7019761 0.59589803 -0.02293441
sənaye -0.4811947 0.0783016 0.17391694 -0.005759181 0.049993444 0.26274008 0.11414183 0.2005092 -0.36769718 0.12960629 0.059547644 0.20906825 0.36130804 -0.58406854 0.28464994 -0.2593184 0.12593879 0.07903643 0.13511147 -0.16673973 0.12749517 0.2997761 0.26970395 -0.66912925 -0.26835644 -0.29315972 -0.5361157 0.015149069 0.3163036 -0.3736038 0.6474273 -0.2521893 0.5339484 -0.124166474 0.2097879 0.103917494 -0.75189704 0.0011132673 -0.01991432 0.33507144 -0.47595802 -0.13469568 -0.48326844 0.1445639 -0.2606206 -0.044088002 0.107286155 0.14216404 -0.39564848 0.5408651 0.11419896 -0.32546023 0.53977454 -0.57412857 -0.0833099 0.022134019 -0.052979756 -0.49072406 -0.12495439 -0.106999345 0.043000117 -0.06687746 0.3495238 0.22432078 0.22417676 0.20662826 0.15584187 0.19468503 -0.18091306 -0.23621549 -0.20429182 -0.26005134 0.3521442 -0.041566566 0.41672367 0.22043474 0.5207441 0.1507611 0.06042142 0.64113736 -0.17801394 -0.061444867 -0.26243377 0.16186048 0.14228328 -0.058934577 -0.08717208 0.2546178 0.36586216 -0.20599584 0.8218662 -0.15289414 0.5958789 -0.14583759 0.09796914 0.5088695 -0.25204584 -0.5063713 0.44542226 -0.020144178
memarlığı -0.4940661 -0.027129414 0.15882342 0.04085495 0.01658829 0.29800695 0.023472855 0.17295697 -0.4535407 0.07622393 0.05534624 0.3546637 0.46762255 -0.6638481 0.3141684 -0.23056898 0.19156578 0.113872 0.12807147 -0.13924292 0.19823098 0.33948398 0.3196869 -0.7943631 -0.3648776 -0.36166403 -0.54165006 0.020818109 0.33226845 -0.4441115 0.7577315 -0.22197008 0.67350405 -0.20151818 0.23802738 0.08358649 -0.8139786 0.02910638 -0.07524436 0.44956824 -0.5091689 -0.092369184 -0.45791894 0.13732691 -0.30717653 0.027662475 0.20815338 0.06253547 -0.5137677 0.59120923 0.15585141 -0.38531622 0.6065214 -0.6830605 0.0040821843 -0.014330394 -0.093943834 -0.55921304 -0.21565665 -0.11897613 0.05687305 -0.07233288 0.41149396 0.30501348 0.27203974 0.2303334 0.1960411 0.20132102 -0.28026277 -0.277183 -0.21018662 -0.34264874 0.40484646 0.008088737 0.55188954 0.21424358 0.5530721 0.17915906 0.042248238 0.7911258 -0.26709515 -0.02192817 -0.32359546 0.16691208 0.121984646 -0.11996448 -0.0765119 0.20440741 0.45005393 -0.2793263 0.94137347 -0.19774401 0.7041268 -0.2529445 0.110944994 0.7104978 -0.21788146 -0.62118924 0.48916364 -0.02312371
Bakının -0.54568285 0.058173344 0.1941521 0.009237387 0.036601137 0.31042153 0.101782866 0.21501964 -0.44071305 0.12424209 0.06518216 0.27283996 0.44186747 -0.68609065 0.3337448 -0.29263565 0.16385554 0.10110853 0.14676486 -0.17524186 0.16408072 0.35090828 0.31606242 -0.79172343 -0.33136958 -0.35117638 -0.6074016 0.021632724 0.36237887 -0.44466448 0.76138216 -0.2806895 0.64588284 -0.15730336 0.24759974 0.10987696 -0.8640848 0.011983157 -0.0403705 0.40505016 -0.5491814 -0.14244565 -0.53918386 0.16714203 -0.30928355 -0.020958645 0.14792706 0.14112014 -0.48200074 0.6278828 0.14340095 -0.37975672 0.63236135 -0.6790384 -0.064082354 0.018491827 -0.07358505 -0.5771845 -0.17521931 -0.13145801 0.056424227 -0.07869795 0.41614714 0.27315238 0.2592391 0.2316967 0.18557626 0.2166679 -0.2238121 -0.27375907 -0.22287244 -0.3118072 0.4050666 -0.024508255 0.49685115 0.23972994 0.58079284 0.17406039 0.0591297 0.75403523 -0.22821665 -0.055000722 -0.3031937 0.17707051 0.1455084 -0.085278325 -0.09584243 0.26446617 0.43123367 -0.24191648 0.9350879 -0.17926307 0.6943865 -0.19661032 0.114776514 0.6261121 -0.2701991 -0.6050835 0.515853 -0.02168443
Azərbaycanın -0.5031757 0.0744499 0.18738045 0.0017450287 0.044305377 0.27486268 0.11673214 0.20636016 -0.39338982 0.13216586 0.063486665 0.22607793 0.39009327 -0.6226354 0.30297506 -0.28262582 0.13668513 0.084409006 0.14402612 -0.17079195 0.13486962 0.3166005 0.28774968 -0.71414626 -0.28907037 -0.3111875 -0.56392074 0.025162853 0.32952878 -0.39879978 0.68803346 -0.26538572 0.5762652 -0.13325126 0.22460786 0.10178586 -0.79516846 0.0061758556 -0.029308042 0.35521093 -0.5052375 -0.14161257 -0.50709945 0.15578361 -0.27635154 -0.03397234 0.12418618 0.14424777 -0.42002177 0.5743018 0.12729421 -0.3441842 0.5768103 -0.6123659 -0.08292816 0.025638403 -0.05886424 -0.51806694 -0.14394006 -0.122089885 0.04212464 -0.07642653 0.36926934 0.23542641 0.23583964 0.21741852 0.16469033 0.2083422 -0.189843 -0.25171098 -0.20686877 -0.27529824 0.3679911 -0.03601547 0.4414976 0.2284549 0.53816426 0.15609619 0.06308948 0.67872524 -0.19209166 -0.06267812 -0.27613994 0.16228743 0.14510436 -0.06922339 -0.09325075 0.25796908 0.38794404 -0.21409056 0.8593065 -0.16221996 0.63146234 -0.16118178 0.11265534 0.5412871 -0.26348963 -0.53706396 0.46811345 -0.016358284
kompozisiya -0.5268461 0.110401906 0.20088136 -0.01184851 0.057893395 0.28240678 0.14039765 0.22651505 -0.39052522 0.14909552 0.060345348 0.20434894 0.381671 -0.63099605 0.3106764 -0.2951545 0.12759398 0.07581098 0.1518935 -0.18634243 0.1268937 0.32391834 0.29384628 -0.7199925 -0.27982265 -0.3091155 -0.5871631 0.022410864 0.3466483 -0.39220533 0.6930308 -0.28523254 0.5632137 -0.122046165 0.2268089 0.119241826 -0.8156128 -0.0021916495 -0.012758653 0.35032305 -0.52375567 -0.15498951 -0.53567326 0.16296336 -0.27557987 -0.059194025 0.09993581 0.17145987 -0.41649833 0.5879156 0.12097189 -0.34979653 0.58385295 -0.6143443 -0.1039434 0.031216538 -0.050674837 -0.5301191 -0.12326687 -0.11836823 0.044638403 -0.07335684 0.37370405 0.23041423 0.238276 0.22333455 0.16944888 0.21708052 -0.17880996 -0.25826576 -0.2208491 -0.27400804 0.38254988 -0.052290622 0.4367471 0.2435415 0.5667698 0.15876372 0.07000189 0.68238413 -0.18637626 -0.076257244 -0.2771189 0.17757969 0.16650182 -0.056700017 -0.101059005 0.29091042 0.38497022 -0.20874704 0.8779738 -0.16046092 0.63860214 -0.14440809 0.10195442 0.5285201 -0.28577715 -0.5362274 0.48277354 -0.022960495
üzərində -0.5109254 -0.01712623 0.16931583 0.039149553 0.024283385 0.29944745 0.04771261 0.18134198 -0.46560517 0.09577909 0.06632869 0.3435011 0.48076013 -0.69238955 0.32492837 -0.25567332 0.18939894 0.11456277 0.14198543 -0.15518261 0.18811233 0.3400895 0.32791835 -0.81020737 -0.36092222 -0.36540794 -0.5683958 0.028389124 0.3356698 -0.4593601 0.775114 -0.23414017 0.6854934 -0.19516762 0.24450153 0.08049111 -0.84340066 0.021420855 -0.07718482 0.44648015 -0.5326458 -0.11037422 -0.48979318 0.15324348 -0.31357005 0.02383828 0.21837786 0.0752422 -0.50595164 0.61022604 0.15353745 -0.39222747 0.6308931 -0.6998131 -0.015550937 -0.0061445273 -0.0905177 -0.5673581 -0.21459825 -0.13510756 0.046580873 -0.0854598 0.41900638 0.3020688 0.27446437 0.24422537 0.19466434 0.21522392 -0.27112672 -0.2818345 -0.22244039 -0.34723586 0.4136446 0.002281422 0.5547816 0.22379494 0.5797632 0.18071824 0.050114308 0.80775964 -0.26428825 -0.036288064 -0.33043012 0.16099207 0.12488174 -0.11897156 -0.08124691 0.22335039 0.45797554 -0.2764958 0.9687153 -0.2003755 0.7279252 -0.24339117 0.13171877 0.69796586 -0.23244163 -0.62894 0.49471626 -0.013251779
memarlığının -0.47927207 -0.07724483 0.14309931 0.05857254 -0.00086996536 0.3023818 -0.021329204 0.1513618 -0.47356606 0.045903336 0.056316834 0.40730327 0.5016101 -0.67733765 0.31595224 -0.20635551 0.21293432 0.12873133 0.11608473 -0.11994203 0.22239453 0.34168434 0.32643256 -0.81679463 -0.39245987 -0.38016248 -0.5201311 0.018659959 0.32363355 -0.46524444 0.7757608 -0.1975328 0.71175176 -0.23013829 0.23828238 0.06819416 -0.80693716 0.04177712 -0.100116044 0.47962993 -0.5025354 -0.072587565 -0.4246697 0.13188551 -0.31817773 0.06175586 0.2467232 0.025036674 -0.54590124 0.58827317 0.1676311 -0.39207998 0.61510485 -0.7031823 0.047028206 -0.029795405 -0.11108192 -0.56887454 -0.25261846 -0.125258 0.060170516 -0.074325114 0.42669514 0.3304824 0.27652946 0.22830063 0.203825 0.19018716 -0.31274238 -0.27621666 -0.20078884 -0.36611965 0.40556252 0.03426486 0.5848883 0.19579856 0.53934294 0.18724385 0.029953506 0.82051235 -0.29472312 -0.00074618915 -0.33282343 0.15756755 0.093540385 -0.1417025 -0.06459088 0.16696152 0.46916842 -0.29808947 0.94473463 -0.20631287 0.71864766 -0.29151538 0.11349323 0.76701075 -0.1894629 -0.6510879 0.48699462 -0.02377021
nın -0.56374955 -0.08966638 0.16802892 0.07021783 -0.00633 0.35829204 -0.028930765 0.17594406 -0.55409485 0.049767423 0.07172792 0.4781022 0.598676 -0.8030465 0.3712358 -0.24485484 0.24914646 0.15879434 0.13289629 -0.13848224 0.26257768 0.40049163 0.38114846 -0.96015424 -0.4614396 -0.44792008 -0.6133434 0.017772421 0.3807845 -0.55714023 0.9106145 -0.23283967 0.84158736 -0.2701062 0.28114524 0.07557725 -0.94521296 0.04915896 -0.124855116 0.5572178 -0.5936213 -0.08957951 -0.50195944 0.15992023 -0.38006482 0.07530995 0.2919703 0.03343911 -0.6364514 0.6921862 0.19472533 -0.4546145 0.72547966 -0.82515013 0.058094125 -0.037090816 -0.13584381 -0.67150617 -0.29828236 -0.15405788 0.07136358 -0.09012945 0.5066376 0.38971058 0.3160457 0.26063475 0.23763196 0.21900961 -0.36297086 -0.31377596 -0.23032527 -0.4236661 0.46300483 0.047339402 0.67805785 0.22217295 0.62188953 0.22121629 0.030249804 0.95176345 -0.34535047 0.003664571 -0.38076904 0.17637289 0.09305206 -0.16527009 -0.071131386 0.18683657 0.5491328 -0.34263095 1.0860475 -0.23624524 0.83036405 -0.3389351 0.13262975 0.88892174 -0.22024739 -0.765291 0.57024205 -0.023953184
edilmişdir. -0.566333 0.093140796 0.20512101 0.003922289 0.05967281 0.2978054 0.123641014 0.24959122 -0.44549784 0.14009719 0.059673302 0.27090278 0.44786528 -0.7074734 0.355906 -0.30271927 0.16126792 0.10519316 0.16565329 -0.1900081 0.16097517 0.3651263 0.33978927 -0.80721605 -0.3328322 -0.3441388 -0.64519066 0.015367007 0.39267555 -0.4474438 0.7735868 -0.2902972 0.6355029 -0.15594472 0.25202617 0.11840021 -0.8985546 -0.004311081 -0.018960137 0.43020058 -0.5659501 -0.14922619 -0.5740206 0.16167879 -0.3093224 -0.043781433 0.13091126 0.16079786 -0.47623876 0.6308261 0.14382908 -0.3925062 0.63201964 -0.6837144 -0.08451076 0.015217052 -0.05633092 -0.5796814 -0.15434164 -0.13393286 0.038222343 -0.06073613 0.42714792 0.2878519 0.28130203 0.24357449 0.19231693 0.23603787 -0.2222069 -0.27847666 -0.2388396 -0.33358306 0.4462848 -0.041634973 0.5083476 0.252547 0.6220633 0.17496549 0.056214556 0.7832517 -0.23035207 -0.06972826 -0.3064602 0.20298499 0.16869219 -0.10299016 -0.10171344 0.30971774 0.43637204 -0.24996106 0.983572 -0.18015362 0.7129065 -0.19845927 0.09458143 0.6466571 -0.28294235 -0.61421394 0.5378538 -0.044986658
iri -0.62945616 -0.01919286 0.20964757 0.047531825 0.036245298 0.37559694 0.04476563 0.2268357 -0.56478673 0.10872729 0.07914219 0.43146786 0.5994344 -0.85439014 0.40119702 -0.30393624 0.23442285 0.15028721 0.16313393 -0.18624271 0.24324398 0.4281222 0.406902 -1.0018449 -0.45278248 -0.45830116 -0.69976056 0.025835816 0.42462865 -0.566476 0.9566213 -0.28699753 0.8460652 -0.24588132 0.29889455 0.10511738 -1.0363424 0.03198014 -0.08952908 0.5622544 -0.65576655 -0.13118339 -0.5999985 0.1887202 -0.3934117 0.023386536 0.2630471 0.09082342 -0.63036305 0.74563533 0.19044563 -0.48185968 0.7710849 -0.8663847 -0.0073947357 -0.011473446 -0.11619514 -0.70888054 -0.26569998 -0.16006652 0.07153584 -0.10001318 0.5219251 0.38124627 0.34106985 0.29987973 0.24417391 0.26152092 -0.34605193 -0.34786353 -0.26980084 -0.4317665 0.51749647 0.0028154193 0.6868023 0.27691036 0.71794385 0.22890472 0.05589316 1.0009739 -0.32510337 -0.039027803 -0.40944046 0.21016619 0.15427452 -0.15154049 -0.09271324 0.27582285 0.5653217 -0.35055533 1.1952643 -0.2481052 0.8995584 -0.31299737 0.14127764 0.8794673 -0.28547776 -0.78632265 0.6202932 -0.023490507
teatr -0.5912746 0.1366042 0.22724614 -0.017521651 0.06614764 0.31050205 0.16747448 0.25535974 -0.4299503 0.17829314 0.07107152 0.2150635 0.41847646 -0.7042875 0.34754318 -0.3389903 0.13828903 0.08484965 0.17346746 -0.21209586 0.13973759 0.36060944 0.32502022 -0.7961207 -0.30706164 -0.34044144 -0.6670137 0.020360263 0.3917925 -0.4385771 0.77096856 -0.32479984 0.62279165 -0.12812692 0.25939888 0.13272816 -0.9128815 -0.012231178 -0.012804244 0.38629267 -0.5849994 -0.18006013 -0.60609853 0.1803554 -0.30470884 -0.07385203 0.106180936 0.19938813 -0.45346025 0.6558619 0.13286804 -0.38867158 0.6495771 -0.6776357 -0.12589826 0.035559807 -0.052227337 -0.58929074 -0.12841682 -0.12736902 0.053167246 -0.07997287 0.4124767 0.25216177 0.26693746 0.2508025 0.18819496 0.24127838 -0.19492319 -0.29120663 -0.24608448 -0.3010406 0.42718157 -0.06457213 0.48107052 0.28307715 0.63457716 0.17406036 0.083426006 0.7552783 -0.20180357 -0.09131189 -0.3059705 0.20379761 0.19305395 -0.06491765 -0.11283524 0.32999566 0.42367694 -0.23142703 0.9845287 -0.17890157 0.7124076 -0.15328568 0.112529926 0.57961833 -0.3256762 -0.5947332 0.540661 -0.021558894
yer -0.5842639 0.073626794 0.20977764 0.005223287 0.053277165 0.3199945 0.11919153 0.23678625 -0.45895687 0.1459018 0.07201534 0.27866068 0.4574406 -0.7245504 0.35054547 -0.3073216 0.16698739 0.104096115 0.16273038 -0.19185637 0.17083845 0.3658119 0.3382918 -0.83163214 -0.3410219 -0.36585748 -0.6553152 0.014847519 0.38524845 -0.46287122 0.80013955 -0.2991971 0.66708773 -0.16267711 0.26340607 0.12604184 -0.91267455 0.0013013836 -0.03471445 0.42756325 -0.58412373 -0.14995843 -0.58028835 0.17390965 -0.3236524 -0.04414445 0.15295073 0.15518045 -0.49649444 0.6555149 0.14490758 -0.40351787 0.6588819 -0.7105646 -0.080554925 0.02112144 -0.072477825 -0.6036442 -0.1626007 -0.13410446 0.057683438 -0.0842947 0.43061304 0.28511536 0.28157812 0.25563654 0.19773045 0.23842025 -0.23772454 -0.29847738 -0.24845059 -0.3324713 0.44406492 -0.04478715 0.5263926 0.26911741 0.6371283 0.18513343 0.06563622 0.8072487 -0.2324272 -0.06852605 -0.32699853 0.20263076 0.17684498 -0.085441306 -0.09879783 0.29764557 0.45467314 -0.26427186 1.0129834 -0.19587938 0.74467206 -0.19650593 0.11497935 0.65734917 -0.29863745 -0.6342576 0.5503487 -0.026901662
etmək -0.5818373 0.15421294 0.2268791 -0.022985 0.073937796 0.3012984 0.18142056 0.2615266 -0.4132079 0.18218768 0.06633148 0.18935412 0.39834085 -0.68517345 0.33803377 -0.33898783 0.12520279 0.07630459 0.1774819 -0.21591668 0.1281795 0.35748455 0.31730267 -0.7683569 -0.29039204 -0.324095 -0.66508865 0.021425424 0.39255393 -0.42256263 0.74472797 -0.32884467 0.586935 -0.11518092 0.25040525 0.13907461 -0.8997336 -0.015486605 0.0057158293 0.3725375 -0.5746086 -0.18098584 -0.6117181 0.17717822 -0.29640716 -0.08649576 0.08166397 0.21395104 -0.43147153 0.63977367 0.12446734 -0.37415367 0.6298704 -0.6535636 -0.13783978 0.04140708 -0.036537603 -0.5679685 -0.108420245 -0.12643187 0.04263998 -0.07369685 0.39927045 0.23786844 0.26568 0.24041688 0.18113579 0.23838052 -0.17288747 -0.2782264 -0.24468823 -0.28611347 0.42354086 -0.07504512 0.45418686 0.27337292 0.62280905 0.16705078 0.07757065 0.7267492 -0.19011813 -0.094252564 -0.2872837 0.20720881 0.19478606 -0.061809562 -0.114835866 0.3477178 0.40577587 -0.21608366 0.95758975 -0.16700882 0.6881076 -0.13814208 0.09987464 0.5470194 -0.32197663 -0.5702139 0.53637505 -0.031070452
tikinti -0.5015827 -0.037306108 0.1613915 0.045763377 0.018858425 0.30408013 0.015228897 0.17099246 -0.4599351 0.08103431 0.06371595 0.36327896 0.4878844 -0.6817937 0.3204787 -0.22975089 0.19128641 0.12668508 0.13031237 -0.14046521 0.19805695 0.33975324 0.3233144 -0.80832446 -0.37083456 -0.37467614 -0.55186546 0.017242186 0.33704874 -0.45583028 0.77193564 -0.2189855 0.69340557 -0.2091385 0.24102224 0.07912392 -0.82675743 0.030420713 -0.083010525 0.45948222 -0.522801 -0.09659018 -0.46516323 0.1463937 -0.31295198 0.030998915 0.22622214 0.05929451 -0.5154709 0.60258275 0.15808478 -0.3904414 0.6185954 -0.69459766 0.006223725 -0.017611803 -0.0980566 -0.56745154 -0.22126731 -0.12883487 0.057979368 -0.07986912 0.41960737 0.31163847 0.27739435 0.23521553 0.20264818 0.20769106 -0.29376322 -0.28238147 -0.21515512 -0.35257024 0.4124861 0.0133251585 0.56365025 0.21686368 0.5699136 0.1890942 0.04190955 0.80960613 -0.2733643 -0.02869801 -0.3316523 0.16414645 0.11438005 -0.12823147 -0.074020356 0.20631996 0.45741937 -0.2906811 0.9628484 -0.20359898 0.7230148 -0.26225913 0.11740038 0.7224572 -0.21782994 -0.63643783 0.49344024 -0.01836106
ictimai -0.45163754 0.020737542 0.15237068 0.016431192 0.028972875 0.26247773 0.055488754 0.1691005 -0.3768485 0.093203 0.052923176 0.26110294 0.3880408 -0.58045316 0.2783631 -0.22127004 0.14514066 0.09461831 0.117150664 -0.13953407 0.14934741 0.29369593 0.27508444 -0.6778812 -0.2945192 -0.30309707 -0.49768046 0.016447749 0.30313218 -0.37681162 0.6496129 -0.21740001 0.5598873 -0.15297183 0.20498691 0.086042814 -0.7224465 0.01541141 -0.049223114 0.36723757 -0.4580942 -0.10581371 -0.43284512 0.13110779 -0.26417843 -0.009723683 0.1530059 0.09397921 -0.4191713 0.5207918 0.1269243 -0.3292968 0.52963555 -0.58255047 -0.03153487 0.00072573725 -0.069047816 -0.4855189 -0.15738513 -0.1091165 0.05089394 -0.06538805 0.3499792 0.24568124 0.2318964 0.1990245 0.16725591 0.18344936 -0.21468726 -0.23983188 -0.1911377 -0.27975562 0.35518387 -0.016696153 0.4503969 0.19993405 0.49861705 0.15364975 0.044215817 0.6669406 -0.20854622 -0.03898495 -0.2698015 0.15247546 0.11852234 -0.08482154 -0.073803 0.2086576 0.37641793 -0.22684856 0.8151844 -0.16369563 0.603414 -0.19065876 0.09501075 0.5702982 -0.21562633 -0.5248393 0.43053466 -0.018805591
hər -0.7146777 0.031088728 0.24801235 0.03017788 0.049163334 0.41093946 0.09294003 0.27185085 -0.6057045 0.15539661 0.09041876 0.42245278 0.61284935 -0.93021953 0.44492477 -0.35766667 0.23774874 0.14788976 0.19345693 -0.21980914 0.24430859 0.4697105 0.44615045 -1.0851113 -0.46717578 -0.4829487 -0.7987942 0.01708722 0.4820586 -0.60813844 1.03621 -0.34536037 0.88436854 -0.24176738 0.32500932 0.12839638 -1.1307309 0.016738866 -0.07439454 0.5787447 -0.7191373 -0.15987602 -0.6815811 0.20699461 -0.41240907 -0.010848847 0.25120297 0.14342435 -0.6556955 0.81799924 0.19115421 -0.5135085 0.83150446 -0.9192378 -0.041854326 -0.006445609 -0.10810604 -0.76680154 -0.25113243 -0.16660923 0.07567037 -0.104710914 0.5688962 0.39194167 0.365537 0.32113096 0.26145938 0.29568082 -0.3433391 -0.3806193 -0.30566132 -0.4493156 0.5647776 -0.024757093 0.7189703 0.32310322 0.79700786 0.24596813 0.071912736 1.0674412 -0.33245498 -0.064856395 -0.43065828 0.24034867 0.19623935 -0.13864404 -0.11698581 0.33633524 0.599433 -0.3628927 1.3048187 -0.2567831 0.9648062 -0.30408648 0.15424374 0.90586245 -0.35273483 -0.83720255 0.6871832 -0.029508632
